#pragma once
#include <cstdarg>
namespace Eloquent {
    namespace ML {
        namespace Port {
            class FallDetectorChest {
                public:
                    /**
                    * Predict class for features vector
                    */
                    int predict(float *x) {
                        uint8_t votes[2] = { 0 };
                        // tree #1
                        if (x[1] <= -0.5933203101158142) {
                            if (x[22] <= 0.09746528416872025) {
                                if (x[21] <= 14.65992021560669) {
                                    if (x[17] <= 9429.4072265625) {
                                        if (x[8] <= 0.0796087384223938) {
                                            if (x[20] <= 0.08576051145792007) {
                                                votes[0] += 1;
                                            }

                                            else {
                                                votes[1] += 1;
                                            }
                                        }

                                        else {
                                            if (x[5] <= 0.11656700447201729) {
                                                votes[0] += 1;
                                            }

                                            else {
                                                if (x[13] <= 5.194528579711914) {
                                                    if (x[2] <= 0.1869531273841858) {
                                                        if (x[6] <= 0.6266053318977356) {
                                                            votes[1] += 1;
                                                        }

                                                        else {
                                                            votes[0] += 1;
                                                        }
                                                    }

                                                    else {
                                                        votes[0] += 1;
                                                    }
                                                }

                                                else {
                                                    votes[1] += 1;
                                                }
                                            }
                                        }
                                    }

                                    else {
                                        if (x[22] <= 0.00013932163710705936) {
                                            if (x[0] <= -0.05058593675494194) {
                                                if (x[17] <= 9742.107421875) {
                                                    votes[0] += 1;
                                                }

                                                else {
                                                    if (x[2] <= 0.44285157322883606) {
                                                        if (x[7] <= 1.0216431021690369) {
                                                            votes[1] += 1;
                                                        }

                                                        else {
                                                            votes[1] += 1;
                                                        }
                                                    }

                                                    else {
                                                        votes[0] += 1;
                                                    }
                                                }
                                            }

                                            else {
                                                if (x[15] <= 1.12841796875) {
                                                    if (x[3] <= 0.028137831948697567) {
                                                        votes[0] += 1;
                                                    }

                                                    else {
                                                        votes[1] += 1;
                                                    }
                                                }

                                                else {
                                                    if (x[17] <= 9821.86376953125) {
                                                        if (x[20] <= 0.0223103454336524) {
                                                            if (x[17] <= 9595.04248046875) {
                                                                votes[0] += 1;
                                                            }

                                                            else {
                                                                votes[1] += 1;
                                                            }
                                                        }

                                                        else {
                                                            if (x[10] <= 0.9603301286697388) {
                                                                votes[0] += 1;
                                                            }

                                                            else {
                                                                votes[1] += 1;
                                                            }
                                                        }
                                                    }

                                                    else {
                                                        if (x[17] <= 10863.51953125) {
                                                            if (x[2] <= -0.2526171952486038) {
                                                                votes[0] += 1;
                                                            }

                                                            else {
                                                                votes[0] += 1;
                                                            }
                                                        }

                                                        else {
                                                            votes[0] += 1;
                                                        }
                                                    }
                                                }
                                            }
                                        }

                                        else {
                                            if (x[5] <= 0.11421655490994453) {
                                                if (x[19] <= -0.004543794086202979) {
                                                    if (x[12] <= 1.0831047892570496) {
                                                        if (x[8] <= 0.16447672247886658) {
                                                            votes[0] += 1;
                                                        }

                                                        else {
                                                            votes[0] += 1;
                                                        }
                                                    }

                                                    else {
                                                        if (x[3] <= 0.06445522233843803) {
                                                            votes[0] += 1;
                                                        }

                                                        else {
                                                            if (x[1] <= -0.9886328279972076) {
                                                                votes[1] += 1;
                                                            }

                                                            else {
                                                                votes[0] += 1;
                                                            }
                                                        }
                                                    }
                                                }

                                                else {
                                                    if (x[8] <= 0.165594220161438) {
                                                        votes[0] += 1;
                                                    }

                                                    else {
                                                        votes[0] += 1;
                                                    }
                                                }
                                            }

                                            else {
                                                if (x[15] <= 1.3252148628234863) {
                                                    if (x[20] <= 0.1650228649377823) {
                                                        if (x[17] <= 10509.0830078125) {
                                                            if (x[2] <= -0.14537109434604645) {
                                                                votes[0] += 1;
                                                            }

                                                            else {
                                                                votes[1] += 1;
                                                            }
                                                        }

                                                        else {
                                                            votes[0] += 1;
                                                        }
                                                    }

                                                    else {
                                                        votes[0] += 1;
                                                    }
                                                }

                                                else {
                                                    if (x[12] <= -1.6889299750328064) {
                                                        votes[1] += 1;
                                                    }

                                                    else {
                                                        votes[0] += 1;
                                                    }
                                                }
                                            }
                                        }
                                    }
                                }

                                else {
                                    if (x[3] <= 0.0926257036626339) {
                                        if (x[22] <= 0.029465707018971443) {
                                            votes[0] += 1;
                                        }

                                        else {
                                            votes[0] += 1;
                                        }
                                    }

                                    else {
                                        if (x[13] <= -0.05404496192932129) {
                                            if (x[8] <= 1.0907706022262573) {
                                                if (x[5] <= 0.1736784130334854) {
                                                    votes[0] += 1;
                                                }

                                                else {
                                                    if (x[0] <= 0.005996093852445483) {
                                                        votes[1] += 1;
                                                    }

                                                    else {
                                                        votes[0] += 1;
                                                    }
                                                }
                                            }

                                            else {
                                                if (x[10] <= 0.9538533091545105) {
                                                    votes[1] += 1;
                                                }

                                                else {
                                                    votes[0] += 1;
                                                }
                                            }
                                        }

                                        else {
                                            if (x[15] <= 1.17808598279953) {
                                                votes[0] += 1;
                                            }

                                            else {
                                                if (x[11] <= 0.15492159873247147) {
                                                    if (x[19] <= 0.16383300721645355) {
                                                        votes[0] += 1;
                                                    }

                                                    else {
                                                        votes[0] += 1;
                                                    }
                                                }

                                                else {
                                                    if (x[1] <= -0.9699023365974426) {
                                                        if (x[9] <= 0.1195928268134594) {
                                                            if (x[15] <= 1.2336328625679016) {
                                                                votes[1] += 1;
                                                            }

                                                            else {
                                                                votes[0] += 1;
                                                            }
                                                        }

                                                        else {
                                                            if (x[19] <= 0.3906441330909729) {
                                                                votes[1] += 1;
                                                            }

                                                            else {
                                                                votes[0] += 1;
                                                            }
                                                        }
                                                    }

                                                    else {
                                                        if (x[5] <= 0.1575264036655426) {
                                                            if (x[2] <= -0.2828710824251175) {
                                                                votes[0] += 1;
                                                            }

                                                            else {
                                                                votes[0] += 1;
                                                            }
                                                        }

                                                        else {
                                                            votes[1] += 1;
                                                        }
                                                    }
                                                }
                                            }
                                        }
                                    }
                                }
                            }

                            else {
                                if (x[14] <= 7.5) {
                                    if (x[1] <= -0.8080859482288361) {
                                        if (x[7] <= 5.139681100845337) {
                                            votes[0] += 1;
                                        }

                                        else {
                                            votes[1] += 1;
                                        }
                                    }

                                    else {
                                        votes[1] += 1;
                                    }
                                }

                                else {
                                    if (x[8] <= 8.562764167785645) {
                                        if (x[12] <= 2.923148989677429) {
                                            if (x[1] <= -0.6670312583446503) {
                                                if (x[13] <= 0.15316522121429443) {
                                                    if (x[18] <= 0.2753017246723175) {
                                                        votes[0] += 1;
                                                    }

                                                    else {
                                                        votes[0] += 1;
                                                    }
                                                }

                                                else {
                                                    if (x[10] <= 1.036081850528717) {
                                                        if (x[3] <= 0.15463702380657196) {
                                                            votes[0] += 1;
                                                        }

                                                        else {
                                                            if (x[11] <= 0.4103560447692871) {
                                                                votes[1] += 1;
                                                            }

                                                            else {
                                                                votes[0] += 1;
                                                            }
                                                        }
                                                    }

                                                    else {
                                                        votes[0] += 1;
                                                    }
                                                }
                                            }

                                            else {
                                                votes[1] += 1;
                                            }
                                        }

                                        else {
                                            votes[1] += 1;
                                        }
                                    }

                                    else {
                                        votes[1] += 1;
                                    }
                                }
                            }
                        }

                        else {
                            if (x[5] <= 0.017730029299855232) {
                                if (x[9] <= 0.11239948868751526) {
                                    if (x[5] <= 0.012173937633633614) {
                                        if (x[10] <= 0.37192413210868835) {
                                            votes[1] += 1;
                                        }

                                        else {
                                            votes[1] += 1;
                                        }
                                    }

                                    else {
                                        votes[1] += 1;
                                    }
                                }

                                else {
                                    votes[1] += 1;
                                }
                            }

                            else {
                                if (x[22] <= 0.04918093606829643) {
                                    if (x[4] <= 0.24445166438817978) {
                                        if (x[19] <= -0.615262359380722) {
                                            if (x[22] <= 0.0002000676468014717) {
                                                votes[1] += 1;
                                            }

                                            else {
                                                votes[0] += 1;
                                            }
                                        }

                                        else {
                                            if (x[5] <= 0.17516864836215973) {
                                                if (x[1] <= -0.07794921845197678) {
                                                    votes[1] += 1;
                                                }

                                                else {
                                                    if (x[9] <= 0.990592896938324) {
                                                        votes[1] += 1;
                                                    }

                                                    else {
                                                        votes[1] += 1;
                                                    }
                                                }
                                            }

                                            else {
                                                if (x[20] <= -0.47906482219696045) {
                                                    votes[0] += 1;
                                                }

                                                else {
                                                    if (x[21] <= 16.359027862548828) {
                                                        votes[0] += 1;
                                                    }

                                                    else {
                                                        if (x[4] <= 0.15289528667926788) {
                                                            votes[0] += 1;
                                                        }

                                                        else {
                                                            votes[1] += 1;
                                                        }
                                                    }
                                                }
                                            }
                                        }
                                    }

                                    else {
                                        if (x[22] <= 0.03533254191279411) {
                                            if (x[11] <= 0.6095530688762665) {
                                                votes[0] += 1;
                                            }

                                            else {
                                                if (x[13] <= 2.731917381286621) {
                                                    votes[0] += 1;
                                                }

                                                else {
                                                    votes[1] += 1;
                                                }
                                            }
                                        }

                                        else {
                                            votes[1] += 1;
                                        }
                                    }
                                }

                                else {
                                    votes[1] += 1;
                                }
                            }
                        }

                        // tree #2
                        if (x[4] <= 0.019197282381355762) {
                            if (x[5] <= 0.012419602833688259) {
                                if (x[6] <= 1.0762338638305664) {
                                    if (x[11] <= 0.5965936481952667) {
                                        if (x[10] <= 0.7271826267242432) {
                                            votes[1] += 1;
                                        }

                                        else {
                                            if (x[1] <= -0.8392382860183716) {
                                                if (x[9] <= 0.047960253432393074) {
                                                    if (x[15] <= 1.1337109804153442) {
                                                        votes[0] += 1;
                                                    }

                                                    else {
                                                        if (x[15] <= 1.20054692029953) {
                                                            votes[1] += 1;
                                                        }

                                                        else {
                                                            votes[0] += 1;
                                                        }
                                                    }
                                                }

                                                else {
                                                    if (x[22] <= 7.890463894000277e-05) {
                                                        votes[0] += 1;
                                                    }

                                                    else {
                                                        votes[0] += 1;
                                                    }
                                                }
                                            }

                                            else {
                                                if (x[15] <= 1.4011523127555847) {
                                                    votes[1] += 1;
                                                }

                                                else {
                                                    votes[0] += 1;
                                                }
                                            }
                                        }
                                    }

                                    else {
                                        votes[1] += 1;
                                    }
                                }

                                else {
                                    votes[1] += 1;
                                }
                            }

                            else {
                                if (x[1] <= -0.4638281315565109) {
                                    if (x[0] <= -0.046113282442092896) {
                                        if (x[22] <= 0.00010040377674158663) {
                                            if (x[15] <= 1.2611327767372131) {
                                                votes[1] += 1;
                                            }

                                            else {
                                                votes[0] += 1;
                                            }
                                        }

                                        else {
                                            votes[0] += 1;
                                        }
                                    }

                                    else {
                                        if (x[1] <= -0.8433007895946503) {
                                            if (x[22] <= 0.0001366011711070314) {
                                                if (x[20] <= 0.7037386894226074) {
                                                    if (x[3] <= 0.03827536478638649) {
                                                        if (x[17] <= 9145.291015625) {
                                                            votes[1] += 1;
                                                        }

                                                        else {
                                                            votes[0] += 1;
                                                        }
                                                    }

                                                    else {
                                                        votes[1] += 1;
                                                    }
                                                }

                                                else {
                                                    votes[1] += 1;
                                                }
                                            }

                                            else {
                                                votes[0] += 1;
                                            }
                                        }

                                        else {
                                            votes[1] += 1;
                                        }
                                    }
                                }

                                else {
                                    votes[1] += 1;
                                }
                            }
                        }

                        else {
                            if (x[9] <= 0.5792700052261353) {
                                if (x[1] <= -0.6770703196525574) {
                                    if (x[10] <= 1.0595732927322388) {
                                        if (x[7] <= 1.4698975086212158) {
                                            if (x[20] <= -0.7051593065261841) {
                                                votes[0] += 1;
                                            }

                                            else {
                                                if (x[17] <= 10042.103515625) {
                                                    if (x[7] <= 1.060059368610382) {
                                                        if (x[1] <= -0.8285742104053497) {
                                                            votes[0] += 1;
                                                        }

                                                        else {
                                                            votes[1] += 1;
                                                        }
                                                    }

                                                    else {
                                                        if (x[4] <= 0.08419356867671013) {
                                                            votes[0] += 1;
                                                        }

                                                        else {
                                                            if (x[15] <= 1.3473047018051147) {
                                                                votes[0] += 1;
                                                            }

                                                            else {
                                                                votes[0] += 1;
                                                            }
                                                        }
                                                    }
                                                }

                                                else {
                                                    if (x[6] <= 0.9826606512069702) {
                                                        votes[0] += 1;
                                                    }

                                                    else {
                                                        votes[0] += 1;
                                                    }
                                                }
                                            }
                                        }

                                        else {
                                            if (x[3] <= 0.07887965068221092) {
                                                if (x[5] <= 0.3812123239040375) {
                                                    votes[0] += 1;
                                                }

                                                else {
                                                    votes[0] += 1;
                                                }
                                            }

                                            else {
                                                if (x[19] <= 0.26308296620845795) {
                                                    if (x[12] <= 0.6183727085590363) {
                                                        if (x[3] <= 0.22959989309310913) {
                                                            if (x[13] <= -0.5763705968856812) {
                                                                votes[0] += 1;
                                                            }

                                                            else {
                                                                votes[0] += 1;
                                                            }
                                                        }

                                                        else {
                                                            votes[0] += 1;
                                                        }
                                                    }

                                                    else {
                                                        if (x[22] <= 0.08509890362620354) {
                                                            if (x[0] <= 0.033417969942092896) {
                                                                votes[1] += 1;
                                                            }

                                                            else {
                                                                votes[1] += 1;
                                                            }
                                                        }

                                                        else {
                                                            if (x[8] <= 3.111775279045105) {
                                                                votes[0] += 1;
                                                            }

                                                            else {
                                                                votes[1] += 1;
                                                            }
                                                        }
                                                    }
                                                }

                                                else {
                                                    if (x[7] <= 4.0470006465911865) {
                                                        if (x[11] <= 0.19075022637844086) {
                                                            votes[0] += 1;
                                                        }

                                                        else {
                                                            if (x[0] <= 0.011640625074505806) {
                                                                votes[0] += 1;
                                                            }

                                                            else {
                                                                votes[0] += 1;
                                                            }
                                                        }
                                                    }

                                                    else {
                                                        votes[1] += 1;
                                                    }
                                                }
                                            }
                                        }
                                    }

                                    else {
                                        if (x[6] <= 0.6426335275173187) {
                                            if (x[12] <= 4.026415109634399) {
                                                votes[0] += 1;
                                            }

                                            else {
                                                if (x[9] <= 0.2890833020210266) {
                                                    if (x[5] <= 0.519428163766861) {
                                                        votes[0] += 1;
                                                    }

                                                    else {
                                                        votes[1] += 1;
                                                    }
                                                }

                                                else {
                                                    votes[1] += 1;
                                                }
                                            }
                                        }

                                        else {
                                            if (x[11] <= 0.1454237625002861) {
                                                votes[0] += 1;
                                            }

                                            else {
                                                if (x[5] <= 0.1363900527358055) {
                                                    votes[0] += 1;
                                                }

                                                else {
                                                    if (x[0] <= 0.04498046822845936) {
                                                        if (x[7] <= 1.6533461809158325) {
                                                            votes[0] += 1;
                                                        }

                                                        else {
                                                            votes[1] += 1;
                                                        }
                                                    }

                                                    else {
                                                        votes[1] += 1;
                                                    }
                                                }
                                            }
                                        }
                                    }
                                }

                                else {
                                    if (x[9] <= 0.13873539119958878) {
                                        if (x[21] <= 8.787471294403076) {
                                            if (x[15] <= 1.4087304472923279) {
                                                if (x[12] <= -1.269285500049591) {
                                                    votes[1] += 1;
                                                }

                                                else {
                                                    if (x[22] <= 0.00012958388833794743) {
                                                        votes[1] += 1;
                                                    }

                                                    else {
                                                        votes[0] += 1;
                                                    }
                                                }
                                            }

                                            else {
                                                votes[0] += 1;
                                            }
                                        }

                                        else {
                                            if (x[8] <= 2.8803226947784424) {
                                                votes[1] += 1;
                                            }

                                            else {
                                                votes[1] += 1;
                                            }
                                        }
                                    }

                                    else {
                                        if (x[17] <= 9731.36767578125) {
                                            if (x[18] <= 0.6093849837779999) {
                                                if (x[0] <= -0.10210937634110451) {
                                                    if (x[20] <= 0.6571375727653503) {
                                                        votes[1] += 1;
                                                    }

                                                    else {
                                                        votes[0] += 1;
                                                    }
                                                }

                                                else {
                                                    if (x[20] <= -0.4940895587205887) {
                                                        votes[0] += 1;
                                                    }

                                                    else {
                                                        votes[1] += 1;
                                                    }
                                                }
                                            }

                                            else {
                                                votes[0] += 1;
                                            }
                                        }

                                        else {
                                            if (x[4] <= 0.15776758641004562) {
                                                if (x[9] <= 0.25546225905418396) {
                                                    votes[0] += 1;
                                                }

                                                else {
                                                    votes[1] += 1;
                                                }
                                            }

                                            else {
                                                votes[1] += 1;
                                            }
                                        }
                                    }
                                }
                            }

                            else {
                                if (x[14] <= 12.5) {
                                    if (x[7] <= 1.361889123916626) {
                                        votes[0] += 1;
                                    }

                                    else {
                                        if (x[1] <= -0.9349218606948853) {
                                            votes[0] += 1;
                                        }

                                        else {
                                            if (x[15] <= 1.2699999809265137) {
                                                votes[0] += 1;
                                            }

                                            else {
                                                votes[1] += 1;
                                            }
                                        }
                                    }
                                }

                                else {
                                    if (x[13] <= 4.125905990600586) {
                                        if (x[22] <= 0.00038951770693529397) {
                                            if (x[11] <= 0.21852920949459076) {
                                                votes[0] += 1;
                                            }

                                            else {
                                                votes[1] += 1;
                                            }
                                        }

                                        else {
                                            if (x[3] <= 0.0551471933722496) {
                                                if (x[11] <= 0.36158594489097595) {
                                                    votes[0] += 1;
                                                }

                                                else {
                                                    votes[1] += 1;
                                                }
                                            }

                                            else {
                                                if (x[13] <= 2.2612216472625732) {
                                                    votes[0] += 1;
                                                }

                                                else {
                                                    if (x[11] <= 0.29538320004940033) {
                                                        votes[0] += 1;
                                                    }

                                                    else {
                                                        votes[0] += 1;
                                                    }
                                                }
                                            }
                                        }
                                    }

                                    else {
                                        if (x[15] <= 1.4678515791893005) {
                                            if (x[5] <= 0.09155344218015671) {
                                                votes[1] += 1;
                                            }

                                            else {
                                                if (x[17] <= 10692.5810546875) {
                                                    if (x[12] <= 0.5670759379863739) {
                                                        votes[1] += 1;
                                                    }

                                                    else {
                                                        votes[0] += 1;
                                                    }
                                                }

                                                else {
                                                    votes[1] += 1;
                                                }
                                            }
                                        }

                                        else {
                                            votes[1] += 1;
                                        }
                                    }
                                }
                            }
                        }

                        // tree #3
                        if (x[5] <= 0.015856175683438778) {
                            if (x[10] <= 0.6854597330093384) {
                                if (x[10] <= 0.42107535898685455) {
                                    votes[1] += 1;
                                }

                                else {
                                    votes[1] += 1;
                                }
                            }

                            else {
                                if (x[7] <= 1.014828383922577) {
                                    if (x[1] <= -0.8452343642711639) {
                                        votes[0] += 1;
                                    }

                                    else {
                                        if (x[0] <= 0.14462890475988388) {
                                            votes[1] += 1;
                                        }

                                        else {
                                            votes[0] += 1;
                                        }
                                    }
                                }

                                else {
                                    if (x[0] <= 0.10892578214406967) {
                                        if (x[15] <= 1.150292992591858) {
                                            votes[0] += 1;
                                        }

                                        else {
                                            if (x[15] <= 1.2203515768051147) {
                                                votes[0] += 1;
                                            }

                                            else {
                                                if (x[9] <= 0.11505911871790886) {
                                                    if (x[1] <= -0.9461523294448853) {
                                                        if (x[15] <= 1.2988085746765137) {
                                                            if (x[22] <= 3.998494867119007e-05) {
                                                                votes[1] += 1;
                                                            }

                                                            else {
                                                                votes[0] += 1;
                                                            }
                                                        }

                                                        else {
                                                            if (x[2] <= 0.019707031548023224) {
                                                                votes[0] += 1;
                                                            }

                                                            else {
                                                                votes[0] += 1;
                                                            }
                                                        }
                                                    }

                                                    else {
                                                        if (x[6] <= 0.9685767292976379) {
                                                            if (x[1] <= -0.8437304794788361) {
                                                                votes[0] += 1;
                                                            }

                                                            else {
                                                                votes[1] += 1;
                                                            }
                                                        }

                                                        else {
                                                            votes[0] += 1;
                                                        }
                                                    }
                                                }

                                                else {
                                                    votes[1] += 1;
                                                }
                                            }
                                        }
                                    }

                                    else {
                                        if (x[6] <= 0.9926948547363281) {
                                            votes[0] += 1;
                                        }

                                        else {
                                            votes[1] += 1;
                                        }
                                    }
                                }
                            }
                        }

                        else {
                            if (x[7] <= 4.929710388183594) {
                                if (x[9] <= 0.5961410403251648) {
                                    if (x[10] <= 1.05673086643219) {
                                        if (x[8] <= 0.7066110670566559) {
                                            if (x[7] <= 1.0298544764518738) {
                                                if (x[19] <= 0.5600849986076355) {
                                                    if (x[0] <= -0.05804687552154064) {
                                                        votes[1] += 1;
                                                    }

                                                    else {
                                                        if (x[1] <= -0.10734375193715096) {
                                                            if (x[9] <= 0.013556992635130882) {
                                                                votes[0] += 1;
                                                            }

                                                            else {
                                                                votes[0] += 1;
                                                            }
                                                        }

                                                        else {
                                                            votes[1] += 1;
                                                        }
                                                    }
                                                }

                                                else {
                                                    votes[1] += 1;
                                                }
                                            }

                                            else {
                                                if (x[10] <= 0.34393300116062164) {
                                                    if (x[14] <= 29.5) {
                                                        if (x[12] <= 2.173469066619873) {
                                                            votes[0] += 1;
                                                        }

                                                        else {
                                                            votes[1] += 1;
                                                        }
                                                    }

                                                    else {
                                                        if (x[1] <= -0.016269531566649675) {
                                                            if (x[2] <= -0.9653906226158142) {
                                                                votes[0] += 1;
                                                            }

                                                            else {
                                                                votes[1] += 1;
                                                            }
                                                        }

                                                        else {
                                                            votes[1] += 1;
                                                        }
                                                    }
                                                }

                                                else {
                                                    if (x[17] <= 10039.3857421875) {
                                                        if (x[3] <= 0.15630289167165756) {
                                                            if (x[1] <= 0.3641406297683716) {
                                                                votes[0] += 1;
                                                            }

                                                            else {
                                                                votes[1] += 1;
                                                            }
                                                        }

                                                        else {
                                                            votes[0] += 1;
                                                        }
                                                    }

                                                    else {
                                                        if (x[6] <= 0.986983448266983) {
                                                            if (x[7] <= 1.4385769963264465) {
                                                                votes[0] += 1;
                                                            }

                                                            else {
                                                                votes[0] += 1;
                                                            }
                                                        }

                                                        else {
                                                            votes[0] += 1;
                                                        }
                                                    }
                                                }
                                            }
                                        }

                                        else {
                                            if (x[10] <= 0.7850662767887115) {
                                                if (x[15] <= 1.5002539157867432) {
                                                    if (x[3] <= 0.05734647624194622) {
                                                        votes[0] += 1;
                                                    }

                                                    else {
                                                        if (x[8] <= 2.1900426149368286) {
                                                            if (x[19] <= -0.15481457114219666) {
                                                                votes[1] += 1;
                                                            }

                                                            else {
                                                                votes[1] += 1;
                                                            }
                                                        }

                                                        else {
                                                            votes[1] += 1;
                                                        }
                                                    }
                                                }

                                                else {
                                                    votes[1] += 1;
                                                }
                                            }

                                            else {
                                                if (x[12] <= 0.4643685817718506) {
                                                    if (x[17] <= 9133.63232421875) {
                                                        if (x[15] <= 1.079394519329071) {
                                                            votes[0] += 1;
                                                        }

                                                        else {
                                                            votes[1] += 1;
                                                        }
                                                    }

                                                    else {
                                                        if (x[17] <= 10877.119140625) {
                                                            votes[0] += 1;
                                                        }

                                                        else {
                                                            if (x[22] <= 0.06050976552069187) {
                                                                votes[0] += 1;
                                                            }

                                                            else {
                                                                votes[0] += 1;
                                                            }
                                                        }
                                                    }
                                                }

                                                else {
                                                    if (x[0] <= 0.032050780951976776) {
                                                        if (x[9] <= 0.12410876154899597) {
                                                            if (x[3] <= 0.067750733345747) {
                                                                votes[0] += 1;
                                                            }

                                                            else {
                                                                votes[0] += 1;
                                                            }
                                                        }

                                                        else {
                                                            if (x[4] <= 0.6002387702465057) {
                                                                votes[0] += 1;
                                                            }

                                                            else {
                                                                votes[1] += 1;
                                                            }
                                                        }
                                                    }

                                                    else {
                                                        if (x[3] <= 0.08724914491176605) {
                                                            votes[0] += 1;
                                                        }

                                                        else {
                                                            if (x[2] <= 0.033515624701976776) {
                                                                votes[1] += 1;
                                                            }

                                                            else {
                                                                votes[0] += 1;
                                                            }
                                                        }
                                                    }
                                                }
                                            }
                                        }
                                    }

                                    else {
                                        if (x[22] <= 0.0644373819231987) {
                                            if (x[6] <= 0.8078385293483734) {
                                                if (x[8] <= 0.8270288109779358) {
                                                    votes[0] += 1;
                                                }

                                                else {
                                                    if (x[13] <= -0.24675226211547852) {
                                                        votes[0] += 1;
                                                    }

                                                    else {
                                                        if (x[3] <= 0.10759343951940536) {
                                                            votes[0] += 1;
                                                        }

                                                        else {
                                                            votes[1] += 1;
                                                        }
                                                    }
                                                }
                                            }

                                            else {
                                                votes[0] += 1;
                                            }
                                        }

                                        else {
                                            if (x[5] <= 0.34588417410850525) {
                                                if (x[14] <= 14.5) {
                                                    if (x[21] <= 33.472652435302734) {
                                                        votes[0] += 1;
                                                    }

                                                    else {
                                                        if (x[12] <= 1.5745119452476501) {
                                                            if (x[17] <= 16455.685546875) {
                                                                votes[0] += 1;
                                                            }

                                                            else {
                                                                votes[1] += 1;
                                                            }
                                                        }

                                                        else {
                                                            votes[0] += 1;
                                                        }
                                                    }
                                                }

                                                else {
                                                    votes[0] += 1;
                                                }
                                            }

                                            else {
                                                votes[0] += 1;
                                            }
                                        }
                                    }
                                }

                                else {
                                    if (x[15] <= 1.4437109231948853) {
                                        if (x[6] <= 0.9562416970729828) {
                                            if (x[4] <= 0.022727481089532375) {
                                                votes[1] += 1;
                                            }

                                            else {
                                                if (x[8] <= 1.9580515027046204) {
                                                    if (x[1] <= 0.043867187574505806) {
                                                        votes[0] += 1;
                                                    }

                                                    else {
                                                        if (x[5] <= 0.22767911851406097) {
                                                            votes[1] += 1;
                                                        }

                                                        else {
                                                            votes[0] += 1;
                                                        }
                                                    }
                                                }

                                                else {
                                                    votes[1] += 1;
                                                }
                                            }
                                        }

                                        else {
                                            if (x[5] <= 0.027849397622048855) {
                                                votes[1] += 1;
                                            }

                                            else {
                                                if (x[12] <= 2.56402325630188) {
                                                    votes[0] += 1;
                                                }

                                                else {
                                                    votes[1] += 1;
                                                }
                                            }
                                        }
                                    }

                                    else {
                                        if (x[6] <= 0.22563453018665314) {
                                            if (x[1] <= -0.8639062643051147) {
                                                votes[0] += 1;
                                            }

                                            else {
                                                votes[1] += 1;
                                            }
                                        }

                                        else {
                                            if (x[7] <= 1.9303588271141052) {
                                                if (x[4] <= 0.09344573318958282) {
                                                    votes[1] += 1;
                                                }

                                                else {
                                                    if (x[21] <= 6.548398733139038) {
                                                        votes[0] += 1;
                                                    }

                                                    else {
                                                        if (x[1] <= -0.16857421398162842) {
                                                            votes[0] += 1;
                                                        }

                                                        else {
                                                            votes[1] += 1;
                                                        }
                                                    }
                                                }
                                            }

                                            else {
                                                if (x[10] <= 1.1456283330917358) {
                                                    votes[1] += 1;
                                                }

                                                else {
                                                    votes[0] += 1;
                                                }
                                            }
                                        }
                                    }
                                }
                            }

                            else {
                                if (x[1] <= -0.8747851550579071) {
                                    if (x[13] <= 21.968131065368652) {
                                        votes[0] += 1;
                                    }

                                    else {
                                        votes[1] += 1;
                                    }
                                }

                                else {
                                    votes[1] += 1;
                                }
                            }
                        }

                        // tree #4
                        if (x[10] <= 0.7776769399642944) {
                            if (x[9] <= 0.12460937350988388) {
                                if (x[1] <= -0.23583984375) {
                                    if (x[21] <= 1.8785938620567322) {
                                        votes[1] += 1;
                                    }

                                    else {
                                        if (x[4] <= 0.012514278292655945) {
                                            votes[1] += 1;
                                        }

                                        else {
                                            if (x[12] <= -1.704162061214447) {
                                                votes[1] += 1;
                                            }

                                            else {
                                                if (x[22] <= 0.12730225175619125) {
                                                    votes[0] += 1;
                                                }

                                                else {
                                                    votes[1] += 1;
                                                }
                                            }
                                        }
                                    }
                                }

                                else {
                                    if (x[5] <= 0.015237053856253624) {
                                        votes[1] += 1;
                                    }

                                    else {
                                        if (x[19] <= -0.4696788042783737) {
                                            votes[0] += 1;
                                        }

                                        else {
                                            if (x[8] <= 0.35777220129966736) {
                                                votes[1] += 1;
                                            }

                                            else {
                                                votes[1] += 1;
                                            }
                                        }
                                    }
                                }
                            }

                            else {
                                if (x[18] <= 0.8391437828540802) {
                                    if (x[14] <= 36.5) {
                                        if (x[21] <= 49.58532905578613) {
                                            if (x[15] <= 1.4501171708106995) {
                                                if (x[1] <= -0.06482421979308128) {
                                                    if (x[6] <= 0.5617785155773163) {
                                                        if (x[22] <= 0.07154526561498642) {
                                                            if (x[3] <= 0.312892347574234) {
                                                                votes[1] += 1;
                                                            }

                                                            else {
                                                                votes[0] += 1;
                                                            }
                                                        }

                                                        else {
                                                            votes[1] += 1;
                                                        }
                                                    }

                                                    else {
                                                        if (x[13] <= 4.22795295715332) {
                                                            if (x[22] <= 0.00015999950846889988) {
                                                                votes[1] += 1;
                                                            }

                                                            else {
                                                                votes[0] += 1;
                                                            }
                                                        }

                                                        else {
                                                            votes[0] += 1;
                                                        }
                                                    }
                                                }

                                                else {
                                                    if (x[15] <= 1.3234960436820984) {
                                                        if (x[20] <= -0.34602054953575134) {
                                                            votes[0] += 1;
                                                        }

                                                        else {
                                                            if (x[10] <= 0.15103428065776825) {
                                                                votes[1] += 1;
                                                            }

                                                            else {
                                                                votes[1] += 1;
                                                            }
                                                        }
                                                    }

                                                    else {
                                                        votes[1] += 1;
                                                    }
                                                }
                                            }

                                            else {
                                                if (x[10] <= 0.4511864334344864) {
                                                    votes[1] += 1;
                                                }

                                                else {
                                                    if (x[22] <= 0.04201367497444153) {
                                                        if (x[0] <= 0.055937498807907104) {
                                                            votes[0] += 1;
                                                        }

                                                        else {
                                                            votes[1] += 1;
                                                        }
                                                    }

                                                    else {
                                                        votes[1] += 1;
                                                    }
                                                }
                                            }
                                        }

                                        else {
                                            votes[1] += 1;
                                        }
                                    }

                                    else {
                                        if (x[22] <= 0.00014797854237258434) {
                                            if (x[1] <= -0.5785156190395355) {
                                                votes[1] += 1;
                                            }

                                            else {
                                                votes[1] += 1;
                                            }
                                        }

                                        else {
                                            if (x[1] <= -0.010605468414723873) {
                                                if (x[11] <= 0.32547104358673096) {
                                                    votes[0] += 1;
                                                }

                                                else {
                                                    if (x[1] <= -0.40771484375) {
                                                        votes[0] += 1;
                                                    }

                                                    else {
                                                        votes[1] += 1;
                                                    }
                                                }
                                            }

                                            else {
                                                votes[1] += 1;
                                            }
                                        }
                                    }
                                }

                                else {
                                    if (x[7] <= 1.7632752060890198) {
                                        votes[0] += 1;
                                    }

                                    else {
                                        votes[1] += 1;
                                    }
                                }
                            }
                        }

                        else {
                            if (x[9] <= 0.7404214441776276) {
                                if (x[10] <= 1.0743971467018127) {
                                    if (x[4] <= 0.5328957140445709) {
                                        if (x[21] <= 14.611086368560791) {
                                            if (x[8] <= 0.08340346813201904) {
                                                if (x[9] <= 0.040224893018603325) {
                                                    if (x[17] <= 9287.11669921875) {
                                                        if (x[2] <= 0.11865234375) {
                                                            votes[0] += 1;
                                                        }

                                                        else {
                                                            votes[1] += 1;
                                                        }
                                                    }

                                                    else {
                                                        votes[0] += 1;
                                                    }
                                                }

                                                else {
                                                    if (x[2] <= -0.08576171845197678) {
                                                        if (x[10] <= 0.9948714077472687) {
                                                            if (x[9] <= 0.19127414375543594) {
                                                                votes[0] += 1;
                                                            }

                                                            else {
                                                                votes[1] += 1;
                                                            }
                                                        }

                                                        else {
                                                            votes[1] += 1;
                                                        }
                                                    }

                                                    else {
                                                        if (x[7] <= 1.0261139273643494) {
                                                            if (x[0] <= -0.050605468451976776) {
                                                                votes[1] += 1;
                                                            }

                                                            else {
                                                                votes[0] += 1;
                                                            }
                                                        }

                                                        else {
                                                            votes[0] += 1;
                                                        }
                                                    }
                                                }
                                            }

                                            else {
                                                if (x[5] <= 0.14249823987483978) {
                                                    if (x[13] <= 0.3899223804473877) {
                                                        votes[0] += 1;
                                                    }

                                                    else {
                                                        votes[0] += 1;
                                                    }
                                                }

                                                else {
                                                    if (x[9] <= 0.213275708258152) {
                                                        if (x[17] <= 10147.15673828125) {
                                                            votes[0] += 1;
                                                        }

                                                        else {
                                                            if (x[18] <= 0.7439026832580566) {
                                                                votes[0] += 1;
                                                            }

                                                            else {
                                                                votes[1] += 1;
                                                            }
                                                        }
                                                    }

                                                    else {
                                                        if (x[3] <= 0.06214721128344536) {
                                                            votes[1] += 1;
                                                        }

                                                        else {
                                                            votes[0] += 1;
                                                        }
                                                    }
                                                }
                                            }
                                        }

                                        else {
                                            if (x[19] <= 0.2805383503437042) {
                                                if (x[12] <= 0.623798280954361) {
                                                    if (x[17] <= 10760.7080078125) {
                                                        if (x[14] <= 23.5) {
                                                            votes[0] += 1;
                                                        }

                                                        else {
                                                            votes[0] += 1;
                                                        }
                                                    }

                                                    else {
                                                        if (x[22] <= 0.09402294456958771) {
                                                            if (x[6] <= 0.8151523768901825) {
                                                                votes[0] += 1;
                                                            }

                                                            else {
                                                                votes[1] += 1;
                                                            }
                                                        }

                                                        else {
                                                            votes[0] += 1;
                                                        }
                                                    }
                                                }

                                                else {
                                                    if (x[0] <= 0.04662109352648258) {
                                                        if (x[7] <= 2.066228985786438) {
                                                            if (x[4] <= 0.12485791742801666) {
                                                                votes[0] += 1;
                                                            }

                                                            else {
                                                                votes[1] += 1;
                                                            }
                                                        }

                                                        else {
                                                            if (x[5] <= 0.5827035307884216) {
                                                                votes[0] += 1;
                                                            }

                                                            else {
                                                                votes[1] += 1;
                                                            }
                                                        }
                                                    }

                                                    else {
                                                        if (x[5] <= 0.11127492412924767) {
                                                            votes[0] += 1;
                                                        }

                                                        else {
                                                            if (x[3] <= 0.08755585923790932) {
                                                                votes[0] += 1;
                                                            }

                                                            else {
                                                                votes[1] += 1;
                                                            }
                                                        }
                                                    }
                                                }
                                            }

                                            else {
                                                if (x[5] <= 0.18417083472013474) {
                                                    votes[0] += 1;
                                                }

                                                else {
                                                    if (x[9] <= 0.136456698179245) {
                                                        votes[0] += 1;
                                                    }

                                                    else {
                                                        if (x[17] <= 10807.87060546875) {
                                                            if (x[2] <= -0.49031250178813934) {
                                                                votes[0] += 1;
                                                            }

                                                            else {
                                                                votes[1] += 1;
                                                            }
                                                        }

                                                        else {
                                                            if (x[12] <= 3.324478507041931) {
                                                                votes[0] += 1;
                                                            }

                                                            else {
                                                                votes[1] += 1;
                                                            }
                                                        }
                                                    }
                                                }
                                            }
                                        }
                                    }

                                    else {
                                        if (x[12] <= 1.5735564827919006) {
                                            votes[0] += 1;
                                        }

                                        else {
                                            votes[1] += 1;
                                        }
                                    }
                                }

                                else {
                                    if (x[7] <= 8.69598388671875) {
                                        if (x[13] <= 15.246452331542969) {
                                            if (x[5] <= 0.33431167900562286) {
                                                if (x[12] <= 1.5757331252098083) {
                                                    if (x[14] <= 14.5) {
                                                        if (x[0] <= 0.02248046826571226) {
                                                            votes[0] += 1;
                                                        }

                                                        else {
                                                            votes[1] += 1;
                                                        }
                                                    }

                                                    else {
                                                        votes[0] += 1;
                                                    }
                                                }

                                                else {
                                                    votes[0] += 1;
                                                }
                                            }

                                            else {
                                                if (x[13] <= 7.231360912322998) {
                                                    votes[0] += 1;
                                                }

                                                else {
                                                    votes[0] += 1;
                                                }
                                            }
                                        }

                                        else {
                                            if (x[22] <= 0.44865582883358) {
                                                votes[0] += 1;
                                            }

                                            else {
                                                votes[1] += 1;
                                            }
                                        }
                                    }

                                    else {
                                        votes[1] += 1;
                                    }
                                }
                            }

                            else {
                                if (x[13] <= 3.9898898601531982) {
                                    if (x[17] <= 24059.822265625) {
                                        votes[1] += 1;
                                    }

                                    else {
                                        votes[0] += 1;
                                    }
                                }

                                else {
                                    votes[1] += 1;
                                }
                            }
                        }

                        // tree #5
                        if (x[22] <= 0.0001655898813623935) {
                            if (x[17] <= 9290.009765625) {
                                if (x[2] <= 0.6538476645946503) {
                                    if (x[0] <= -0.04970703087747097) {
                                        votes[1] += 1;
                                    }

                                    else {
                                        if (x[10] <= 0.4982301741838455) {
                                            votes[1] += 1;
                                        }

                                        else {
                                            if (x[0] <= 0.03779296949505806) {
                                                if (x[2] <= 0.3675000071525574) {
                                                    votes[0] += 1;
                                                }

                                                else {
                                                    votes[1] += 1;
                                                }
                                            }

                                            else {
                                                votes[0] += 1;
                                            }
                                        }
                                    }
                                }

                                else {
                                    if (x[9] <= 0.16482407599687576) {
                                        if (x[11] <= 0.7604722380638123) {
                                            votes[0] += 1;
                                        }

                                        else {
                                            if (x[0] <= -0.055000001564621925) {
                                                votes[1] += 1;
                                            }

                                            else {
                                                if (x[4] <= 0.014638668391853571) {
                                                    votes[1] += 1;
                                                }

                                                else {
                                                    votes[1] += 1;
