#pragma once
#include <cstdarg>
namespace Eloquent {
    namespace ML {
        namespace Port {
            class FallDetectorChest {
                public:
                    /**
                    * Predict class for features vector
                    */
                    int predict(float *x) {
                        uint8_t votes[3] = { 0 };
                        // tree #1
                        if (x[5] <= 0.7909214496612549) {
                            if (x[1] <= -0.7080259919166565) {
                                if (x[10] <= 0.650467574596405) {
                                    if (x[21] <= 0.31369610130786896) {
                                        votes[1] += 1;
                                    }

                                    else {
                                        votes[1] += 1;
                                    }
                                }

                                else {
                                    votes[0] += 1;
                                }
                            }

                            else {
                                if (x[14] <= 94.71591567993164) {
                                    if (x[8] <= 11.629936695098877) {
                                        if (x[1] <= -0.16103199496865273) {
                                            votes[0] += 1;
                                        }

                                        else {
                                            if (x[14] <= 93.99318313598633) {
                                                votes[2] += 1;
                                            }

                                            else {
                                                if (x[4] <= 0.3626059591770172) {
                                                    if (x[0] <= 8.075315713882446) {
                                                        votes[2] += 1;
                                                    }

                                                    else {
                                                        votes[1] += 1;
                                                    }
                                                }

                                                else {
                                                    votes[0] += 1;
                                                }
                                            }
                                        }
                                    }

                                    else {
                                        votes[0] += 1;
                                    }
                                }

                                else {
                                    if (x[2] <= -3.084035098552704) {
                                        if (x[16] <= -0.3422228991985321) {
                                            if (x[13] <= 0.4325384199619293) {
                                                votes[2] += 1;
                                            }

                                            else {
                                                votes[2] += 1;
                                            }
                                        }

                                        else {
                                            if (x[12] <= 1.43427973985672) {
                                                if (x[3] <= 0.32249169051647186) {
                                                    votes[0] += 1;
                                                }

                                                else {
                                                    votes[0] += 1;
                                                }
                                            }

                                            else {
                                                if (x[9] <= 7.831494092941284) {
                                                    votes[0] += 1;
                                                }

                                                else {
                                                    votes[2] += 1;
                                                }
                                            }
                                        }
                                    }

                                    else {
                                        if (x[14] <= 100.38891983032227) {
                                            if (x[5] <= 0.6019569337368011) {
                                                if (x[2] <= 8.83800983428955) {
                                                    votes[0] += 1;
                                                }

                                                else {
                                                    votes[2] += 1;
                                                }
                                            }

                                            else {
                                                if (x[3] <= 0.31002077460289) {
                                                    votes[2] += 1;
                                                }

                                                else {
                                                    votes[0] += 1;
                                                }
                                            }
                                        }

                                        else {
                                            votes[1] += 1;
                                        }
                                    }
                                }
                            }
                        }

                        else {
                            if (x[2] <= 3.2611889839172363) {
                                if (x[17] <= 0.3237069845199585) {
                                    if (x[11] <= 0.80778568983078) {
                                        if (x[12] <= 2.5684306621551514) {
                                            if (x[13] <= 0.36350834369659424) {
                                                votes[2] += 1;
                                            }

                                            else {
                                                votes[2] += 1;
                                            }
                                        }

                                        else {
                                            votes[0] += 1;
                                        }
                                    }

                                    else {
                                        if (x[14] <= 96.45863342285156) {
                                            votes[0] += 1;
                                        }

                                        else {
                                            if (x[1] <= -0.1554180048406124) {
                                                votes[0] += 1;
                                            }

                                            else {
                                                votes[2] += 1;
                                            }
                                        }
                                    }
                                }

                                else {
                                    if (x[0] <= 9.120725631713867) {
                                        if (x[2] <= -0.3370959907770157) {
                                            votes[0] += 1;
                                        }

                                        else {
                                            votes[0] += 1;
                                        }
                                    }

                                    else {
                                        if (x[14] <= 103.82033920288086) {
                                            if (x[17] <= 0.4954855591058731) {
                                                votes[0] += 1;
                                            }

                                            else {
                                                if (x[2] <= 0.63851398229599) {
                                                    votes[2] += 1;
                                                }

                                                else {
                                                    votes[0] += 1;
                                                }
                                            }
                                        }

                                        else {
                                            votes[2] += 1;
                                        }
                                    }
                                }
                            }

                            else {
                                if (x[15] <= 12.160582065582275) {
                                    if (x[0] <= 3.7004709243774414) {
                                        if (x[2] <= 8.368833065032959) {
                                            if (x[3] <= 2.2764973640441895) {
                                                votes[1] += 1;
                                            }

                                            else {
                                                votes[2] += 1;
                                            }
                                        }

                                        else {
                                            votes[2] += 1;
                                        }
                                    }

                                    else {
                                        if (x[0] <= 8.150122165679932) {
                                            if (x[16] <= -0.4735899716615677) {
                                                if (x[11] <= 1.1392472982406616) {
                                                    votes[0] += 1;
                                                }

                                                else {
                                                    if (x[10] <= 1.597333312034607) {
                                                        votes[1] += 1;
                                                    }

                                                    else {
                                                        if (x[1] <= 0.8326509892940521) {
                                                            votes[2] += 1;
                                                        }

                                                        else {
                                                            votes[0] += 1;
                                                        }
                                                    }
                                                }
                                            }

                                            else {
                                                if (x[16] <= -0.10776791721582413) {
                                                    if (x[13] <= 0.8248835504055023) {
                                                        if (x[21] <= 1.0753948092460632) {
                                                            votes[0] += 1;
                                                        }

                                                        else {
                                                            votes[2] += 1;
                                                        }
                                                    }

                                                    else {
                                                        if (x[14] <= 102.7573013305664) {
                                                            if (x[12] <= 4.008847117424011) {
                                                                votes[1] += 1;
                                                            }

                                                            else {
                                                                votes[1] += 1;
                                                            }
                                                        }

                                                        else {
                                                            votes[1] += 1;
                                                        }
                                                    }
                                                }

                                                else {
                                                    if (x[14] <= 98.63482666015625) {
                                                        if (x[18] <= -0.13409512490034103) {
                                                            if (x[0] <= 6.336754083633423) {
                                                                votes[1] += 1;
                                                            }

                                                            else {
                                                                votes[0] += 1;
                                                            }
                                                        }

                                                        else {
                                                            votes[1] += 1;
                                                        }
                                                    }

                                                    else {
                                                        votes[1] += 1;
                                                    }
                                                }
                                            }
                                        }

                                        else {
                                            if (x[9] <= 6.858858823776245) {
                                                if (x[10] <= 1.9550378918647766) {
                                                    votes[0] += 1;
                                                }

                                                else {
                                                    if (x[4] <= 0.9071047902107239) {
                                                        if (x[18] <= -0.077114537358284) {
                                                            votes[2] += 1;
                                                        }

                                                        else {
                                                            votes[0] += 1;
                                                        }
                                                    }

                                                    else {
                                                        votes[1] += 1;
                                                    }
                                                }
                                            }

                                            else {
                                                if (x[3] <= 0.8020304441452026) {
                                                    votes[0] += 1;
                                                }

                                                else {
                                                    if (x[0] <= 8.305171012878418) {
                                                        votes[0] += 1;
                                                    }

                                                    else {
                                                        if (x[4] <= 0.5388957262039185) {
                                                            if (x[13] <= 0.6628217995166779) {
                                                                votes[1] += 1;
                                                            }

                                                            else {
                                                                votes[0] += 1;
                                                            }
                                                        }

                                                        else {
                                                            votes[1] += 1;
                                                        }
                                                    }
                                                }
                                            }
                                        }
                                    }
                                }

                                else {
                                    if (x[6] <= 9.848358631134033) {
                                        if (x[17] <= -0.29149000346660614) {
                                            votes[0] += 1;
                                        }

                                        else {
                                            votes[2] += 1;
                                        }
                                    }

                                    else {
                                        votes[2] += 1;
                                    }
                                }
                            }
                        }

                        // tree #2
                        if (x[15] <= 4.12195611000061) {
                            if (x[8] <= 9.978760242462158) {
                                if (x[14] <= 94.0869026184082) {
                                    votes[2] += 1;
                                }

                                else {
                                    votes[1] += 1;
                                }
                            }

                            else {
                                if (x[2] <= 9.155753135681152) {
                                    if (x[2] <= 0.7802249789237976) {
                                        if (x[5] <= 2.263164520263672) {
                                            if (x[11] <= 0.6711263358592987) {
                                                if (x[17] <= -0.5841156840324402) {
                                                    votes[0] += 1;
                                                }

                                                else {
                                                    if (x[17] <= 0.23313481360673904) {
                                                        if (x[11] <= 0.6016718447208405) {
                                                            if (x[0] <= 2.252851963043213) {
                                                                votes[2] += 1;
                                                            }

                                                            else {
                                                                votes[2] += 1;
                                                            }
                                                        }

                                                        else {
                                                            votes[0] += 1;
                                                        }
                                                    }

                                                    else {
                                                        votes[0] += 1;
                                                    }
                                                }
                                            }

                                            else {
                                                votes[2] += 1;
                                            }
                                        }

                                        else {
                                            votes[0] += 1;
                                        }
                                    }

                                    else {
                                        if (x[10] <= 0.46901148557662964) {
                                            if (x[5] <= 0.75410595536232) {
                                                if (x[0] <= 7.615912914276123) {
                                                    if (x[9] <= 9.388784408569336) {
                                                        if (x[17] <= -0.09245007298886776) {
                                                            if (x[11] <= 0.22070323675870895) {
                                                                votes[2] += 1;
                                                            }

                                                            else {
                                                                votes[2] += 1;
                                                            }
                                                        }

                                                        else {
                                                            votes[0] += 1;
                                                        }
                                                    }

                                                    else {
                                                        votes[0] += 1;
                                                    }
                                                }

                                                else {
                                                    votes[0] += 1;
                                                }
                                            }

                                            else {
                                                votes[1] += 1;
                                            }
                                        }

                                        else {
                                            if (x[21] <= 0.35366447269916534) {
                                                if (x[14] <= 97.12797927856445) {
                                                    if (x[12] <= 1.1254431009292603) {
                                                        votes[0] += 1;
                                                    }

                                                    else {
                                                        if (x[1] <= -0.4757330119609833) {
                                                            votes[1] += 1;
                                                        }

                                                        else {
                                                            votes[0] += 1;
                                                        }
                                                    }
                                                }

                                                else {
                                                    if (x[1] <= -0.08580800029449165) {
                                                        votes[1] += 1;
                                                    }

                                                    else {
                                                        votes[0] += 1;
                                                    }
                                                }
                                            }

                                            else {
                                                votes[0] += 1;
                                            }
                                        }
                                    }
                                }

                                else {
                                    votes[2] += 1;
                                }
                            }
                        }

                        else {
                            if (x[2] <= 8.479514122009277) {
                                if (x[5] <= 0.7907489836215973) {
                                    if (x[11] <= 0.5880594849586487) {
                                        votes[2] += 1;
                                    }

                                    else {
                                        if (x[11] <= 0.7892680764198303) {
                                            if (x[1] <= 0.7821339964866638) {
                                                votes[0] += 1;
                                            }

                                            else {
                                                votes[0] += 1;
                                            }
                                        }

                                        else {
                                            votes[0] += 1;
                                        }
                                    }
                                }

                                else {
                                    if (x[3] <= 2.410758376121521) {
                                        if (x[6] <= 10.171016693115234) {
                                            if (x[4] <= 1.1205468773841858) {
                                                if (x[2] <= 3.1304869651794434) {
                                                    if (x[16] <= 0.5811433792114258) {
                                                        if (x[1] <= -0.2846270054578781) {
                                                            votes[0] += 1;
                                                        }

                                                        else {
                                                            if (x[12] <= 2.4918891191482544) {
                                                                votes[0] += 1;
                                                            }

                                                            else {
                                                                votes[2] += 1;
                                                            }
                                                        }
                                                    }

                                                    else {
                                                        votes[0] += 1;
                                                    }
                                                }

                                                else {
                                                    if (x[9] <= 7.177944898605347) {
                                                        if (x[5] <= 1.2877511382102966) {
                                                            if (x[18] <= -0.8059956431388855) {
                                                                votes[1] += 1;
                                                            }

                                                            else {
                                                                votes[0] += 1;
                                                            }
                                                        }

                                                        else {
                                                            if (x[17] <= 0.3329176753759384) {
                                                                votes[1] += 1;
                                                            }

                                                            else {
                                                                votes[2] += 1;
                                                            }
                                                        }
                                                    }

                                                    else {
                                                        if (x[4] <= 0.5465374290943146) {
                                                            if (x[6] <= 9.71573257446289) {
                                                                votes[1] += 1;
                                                            }

                                                            else {
                                                                votes[0] += 1;
                                                            }
                                                        }

                                                        else {
                                                            if (x[10] <= 1.0925252437591553) {
                                                                votes[1] += 1;
                                                            }

                                                            else {
                                                                votes[1] += 1;
                                                            }
                                                        }
                                                    }
                                                }
                                            }

                                            else {
                                                if (x[17] <= 0.5775748193264008) {
                                                    if (x[5] <= 1.2627466320991516) {
                                                        if (x[13] <= 0.6964363157749176) {
                                                            votes[0] += 1;
                                                        }

                                                        else {
                                                            if (x[15] <= 6.8784544467926025) {
                                                                votes[1] += 1;
                                                            }

                                                            else {
                                                                votes[0] += 1;
                                                            }
                                                        }
                                                    }

                                                    else {
                                                        if (x[2] <= 4.060276031494141) {
                                                            votes[1] += 1;
                                                        }

                                                        else {
                                                            if (x[12] <= 2.8915321826934814) {
                                                                votes[1] += 1;
                                                            }

                                                            else {
                                                                votes[1] += 1;
                                                            }
                                                        }
                                                    }
                                                }

                                                else {
                                                    votes[0] += 1;
                                                }
                                            }
                                        }

                                        else {
                                            if (x[6] <= 10.288736343383789) {
                                                votes[2] += 1;
                                            }

                                            else {
                                                if (x[17] <= 0.7833587825298309) {
                                                    votes[1] += 1;
                                                }

                                                else {
                                                    votes[0] += 1;
                                                }
                                            }
                                        }
                                    }

                                    else {
                                        if (x[21] <= 30.95218849182129) {
                                            if (x[16] <= -0.6279473006725311) {
                                                votes[1] += 1;
                                            }

                                            else {
                                                if (x[21] <= 4.143135070800781) {
                                                    votes[2] += 1;
                                                }

                                                else {
                                                    if (x[11] <= 2.2638098001480103) {
                                                        votes[2] += 1;
                                                    }

                                                    else {
                                                        if (x[13] <= 1.7085205912590027) {
                                                            votes[2] += 1;
                                                        }

                                                        else {
                                                            votes[2] += 1;
                                                        }
                                                    }
                                                }
                                            }
                                        }

                                        else {
                                            votes[0] += 1;
                                        }
                                    }
                                }
                            }

                            else {
                                votes[2] += 1;
                            }
                        }

                        // tree #3
                        if (x[5] <= 0.794564962387085) {
                            if (x[2] <= 9.141546249389648) {
                                if (x[14] <= 97.42131423950195) {
                                    if (x[6] <= 9.703543663024902) {
                                        if (x[12] <= 1.193104863166809) {
                                            votes[1] += 1;
                                        }

                                        else {
                                            if (x[3] <= 0.5432583391666412) {
                                                votes[2] += 1;
                                            }

                                            else {
                                                votes[0] += 1;
                                            }
                                        }
                                    }

                                    else {
                                        if (x[1] <= -0.6159280240535736) {
                                            if (x[9] <= 8.66943359375) {
                                                votes[0] += 1;
                                            }

                                            else {
                                                votes[1] += 1;
                                            }
                                        }

                                        else {
                                            if (x[0] <= 2.3790310621261597) {
                                                votes[2] += 1;
                                            }

                                            else {
                                                if (x[0] <= 7.630791902542114) {
                                                    if (x[9] <= 9.184234619140625) {
                                                        votes[0] += 1;
                                                    }

                                                    else {
                                                        if (x[6] <= 9.761674404144287) {
                                                            votes[2] += 1;
                                                        }

                                                        else {
                                                            votes[0] += 1;
                                                        }
                                                    }
                                                }

                                                else {
                                                    votes[0] += 1;
                                                }
                                            }
                                        }
                                    }
                                }

                                else {
                                    if (x[4] <= 0.42407265305519104) {
                                        if (x[2] <= -6.958276033401489) {
                                            if (x[13] <= 0.20419690012931824) {
                                                if (x[0] <= 2.238796979188919) {
                                                    votes[2] += 1;
                                                }

                                                else {
                                                    votes[0] += 1;
                                                }
                                            }

                                            else {
                                                if (x[9] <= 8.732046604156494) {
                                                    votes[2] += 1;
                                                }

                                                else {
                                                    if (x[18] <= -0.15493135899305344) {
                                                        votes[0] += 1;
                                                    }

                                                    else {
                                                        votes[2] += 1;
                                                    }
                                                }
                                            }
                                        }

                                        else {
                                            if (x[5] <= 0.756310224533081) {
                                                votes[0] += 1;
                                            }

                                            else {
                                                votes[1] += 1;
                                            }
                                        }
                                    }

                                    else {
                                        if (x[1] <= 0.16412100195884705) {
                                            if (x[0] <= 8.912842273712158) {
                                                votes[0] += 1;
                                            }

                                            else {
                                                votes[1] += 1;
                                            }
                                        }

                                        else {
                                            if (x[0] <= 2.7760289907455444) {
                                                votes[2] += 1;
                                            }

                                            else {
                                                if (x[4] <= 0.5615063309669495) {
                                                    if (x[2] <= -2.9980550408363342) {
                                                        if (x[1] <= 1.1004129946231842) {
                                                            votes[2] += 1;
                                                        }

                                                        else {
                                                            votes[0] += 1;
                                                        }
                                                    }

                                                    else {
                                                        votes[0] += 1;
                                                    }
                                                }

                                                else {
                                                    votes[0] += 1;
                                                }
                                            }
                                        }
                                    }
                                }
                            }

                            else {
                                votes[2] += 1;
                            }
                        }

                        else {
                            if (x[4] <= 1.3385214805603027) {
                                if (x[20] <= 0.009999999776482582) {
                                    if (x[17] <= 0.2731346935033798) {
                                        if (x[6] <= 9.901607990264893) {
                                            if (x[2] <= -0.5584410429000854) {
                                                votes[2] += 1;
                                            }

                                            else {
                                                if (x[5] <= 1.274019181728363) {
                                                    if (x[1] <= -0.04338599927723408) {
                                                        if (x[0] <= 8.465135097503662) {
                                                            if (x[7] <= 0.9871627390384674) {
                                                                votes[1] += 1;
                                                            }

                                                            else {
                                                                votes[0] += 1;
                                                            }
                                                        }

                                                        else {
                                                            if (x[4] <= 0.5653714537620544) {
                                                                votes[0] += 1;
                                                            }

                                                            else {
                                                                votes[1] += 1;
                                                            }
                                                        }
                                                    }

                                                    else {
                                                        votes[0] += 1;
                                                    }
                                                }

                                                else {
                                                    if (x[16] <= 0.07368914317339659) {
                                                        if (x[15] <= 9.378578424453735) {
                                                            if (x[1] <= 1.2632970213890076) {
                                                                votes[0] += 1;
                                                            }

                                                            else {
                                                                votes[0] += 1;
                                                            }
                                                        }

                                                        else {
                                                            votes[2] += 1;
                                                        }
                                                    }

                                                    else {
                                                        if (x[0] <= 5.42834997177124) {
                                                            votes[1] += 1;
                                                        }

                                                        else {
                                                            votes[1] += 1;
                                                        }
                                                    }
                                                }
                                            }
                                        }

                                        else {
                                            if (x[4] <= 0.39541861414909363) {
                                                votes[2] += 1;
                                            }

                                            else {
                                                if (x[2] <= 2.7986990213394165) {
                                                    if (x[8] <= 13.38625955581665) {
                                                        if (x[21] <= 1.9030897617340088) {
                                                            votes[2] += 1;
                                                        }

                                                        else {
                                                            votes[0] += 1;
                                                        }
                                                    }

                                                    else {
                                                        votes[2] += 1;
                                                    }
                                                }

                                                else {
                                                    if (x[0] <= 5.1801159381866455) {
                                                        votes[2] += 1;
                                                    }

                                                    else {
                                                        if (x[9] <= 6.762895584106445) {
                                                            if (x[7] <= 1.988393783569336) {
                                                                votes[0] += 1;
                                                            }

                                                            else {
                                                                votes[1] += 1;
                                                            }
                                                        }

                                                        else {
                                                            if (x[0] <= 7.4854350090026855) {
                                                                votes[1] += 1;
                                                            }

                                                            else {
                                                                votes[1] += 1;
                                                            }
                                                        }
                                                    }
                                                }
                                            }
                                        }
                                    }

                                    else {
                                        if (x[5] <= 1.2547861337661743) {
                                            if (x[11] <= 0.5154527723789215) {
                                                votes[1] += 1;
                                            }

                                            else {
                                                if (x[5] <= 1.1215550899505615) {
                                                    if (x[5] <= 0.9561517238616943) {
                                                        if (x[9] <= 8.07216501235962) {
                                                            votes[2] += 1;
                                                        }

                                                        else {
                                                            votes[0] += 1;
                                                        }
                                                    }

                                                    else {
                                                        votes[0] += 1;
                                                    }
                                                }

                                                else {
                                                    if (x[3] <= 0.9786500036716461) {
                                                        votes[2] += 1;
                                                    }

                                                    else {
                                                        votes[1] += 1;
                                                    }
                                                }
                                            }
                                        }

                                        else {
                                            if (x[8] <= 12.989134311676025) {
                                                if (x[11] <= 0.8542859554290771) {
                                                    votes[2] += 1;
                                                }

                                                else {
                                                    votes[0] += 1;
                                                }
                                            }

                                            else {
                                                if (x[1] <= -0.19643700122833252) {
                                                    votes[2] += 1;
                                                }

                                                else {
                                                    votes[2] += 1;
                                                }
                                            }
                                        }
                                    }
                                }

                                else {
                                    votes[2] += 1;
                                }
                            }

                            else {
                                if (x[21] <= 7.924840450286865) {
                                    if (x[8] <= 12.106136322021484) {
                                        votes[0] += 1;
                                    }

                                    else {
                                        votes[1] += 1;
                                    }
                                }

                                else {
                                    if (x[1] <= -0.16465499997138977) {
                                        votes[0] += 1;
                                    }

                                    else {
                                        votes[2] += 1;
                                    }
                                }
                            }
                        }

                        // tree #4
                        if (x[4] <= 1.1807721257209778) {
                            if (x[0] <= 2.8487939834594727) {
                                votes[2] += 1;
                            }

                            else {
                                if (x[7] <= 0.5882371068000793) {
                                    if (x[6] <= 9.845700740814209) {
                                        if (x[2] <= 6.007609844207764) {
                                            if (x[15] <= 1.7966180443763733) {
                                                votes[0] += 1;
                                            }

                                            else {
                                                if (x[11] <= 0.4056236445903778) {
                                                    if (x[13] <= 0.22621574997901917) {
                                                        if (x[7] <= 0.3744123727083206) {
                                                            if (x[14] <= 95.99931335449219) {
                                                                votes[0] += 1;
                                                            }

                                                            else {
                                                                votes[1] += 1;
                                                            }
                                                        }

                                                        else {
                                                            votes[0] += 1;
                                                        }
                                                    }

                                                    else {
                                                        if (x[3] <= 0.3933226764202118) {
                                                            votes[0] += 1;
                                                        }

                                                        else {
                                                            votes[1] += 1;
                                                        }
                                                    }
                                                }

                                                else {
                                                    votes[0] += 1;
                                                }
                                            }
                                        }

                                        else {
                                            if (x[0] <= 7.269045829772949) {
                                                votes[0] += 1;
                                            }

                                            else {
                                                if (x[6] <= 9.786582946777344) {
                                                    if (x[16] <= 0.06743302755057812) {
                                                        votes[2] += 1;
                                                    }

                                                    else {
                                                        votes[0] += 1;
                                                    }
                                                }

                                                else {
                                                    votes[0] += 1;
                                                }
                                            }
                                        }
                                    }

                                    else {
                                        if (x[0] <= 7.204962968826294) {
                                            if (x[10] <= 0.45937950909137726) {
                                                if (x[13] <= 0.2049270123243332) {
                                                    votes[0] += 1;
                                                }

                                                else {
                                                    votes[2] += 1;
                                                }
                                            }

                                            else {
                                                if (x[8] <= 11.429516792297363) {
                                                    if (x[0] <= 5.669862985610962) {
                                                        votes[0] += 1;
                                                    }

                                                    else {
                                                        votes[0] += 1;
                                                    }
                                                }

                                                else {
                                                    votes[2] += 1;
                                                }
                                            }
                                        }

                                        else {
                                            if (x[2] <= 2.9617589712142944) {
                                                if (x[16] <= -0.35857075452804565) {
                                                    votes[1] += 1;
                                                }

                                                else {
                                                    votes[0] += 1;
                                                }
                                            }

                                            else {
                                                if (x[1] <= -0.4932049885392189) {
                                                    votes[1] += 1;
                                                }

                                                else {
                                                    votes[0] += 1;
                                                }
                                            }
                                        }
                                    }
                                }

                                else {
                                    if (x[5] <= 0.7704017460346222) {
                                        if (x[6] <= 9.884580612182617) {
                                            if (x[8] <= 11.117417335510254) {
                                                if (x[13] <= 0.32146410644054413) {
                                                    if (x[6] <= 9.85098934173584) {
                                                        votes[0] += 1;
                                                    }

                                                    else {
                                                        votes[2] += 1;
                                                    }
                                                }

                                                else {
                                                    votes[0] += 1;
                                                }
                                            }

                                            else {
                                                votes[0] += 1;
                                            }
                                        }

                                        else {
                                            if (x[12] <= 1.8024045825004578) {
                                                if (x[18] <= 0.2401723638176918) {
                                                    votes[2] += 1;
                                                }

                                                else {
                                                    if (x[18] <= 0.4598246216773987) {
                                                        votes[1] += 1;
                                                    }

                                                    else {
                                                        votes[0] += 1;
                                                    }
                                                }
                                            }

                                            else {
                                                votes[0] += 1;
                                            }
                                        }
                                    }

                                    else {
                                        if (x[18] <= 1.0808023810386658) {
                                            if (x[7] <= 0.8026975393295288) {
                                                if (x[16] <= 0.05080794170498848) {
                                                    votes[0] += 1;
                                                }

                                                else {
                                                    if (x[13] <= 0.5663360059261322) {
                                                        if (x[16] <= 0.07369417324662209) {
                                                            votes[0] += 1;
                                                        }

                                                        else {
                                                            if (x[21] <= 0.6560604274272919) {
                                                                votes[2] += 1;
                                                            }

                                                            else {
                                                                votes[2] += 1;
                                                            }
                                                        }
                                                    }

                                                    else {
                                                        votes[0] += 1;
                                                    }
                                                }
                                            }

                                            else {
                                                if (x[0] <= 5.188346862792969) {
                                                    if (x[17] <= -0.3055177703499794) {
                                                        votes[0] += 1;
                                                    }

                                                    else {
                                                        votes[2] += 1;
                                                    }
                                                }

                                                else {
                                                    if (x[20] <= 0.009999999776482582) {
                                                        if (x[7] <= 1.8275796175003052) {
                                                            if (x[7] <= 1.0955911874771118) {
                                                                votes[1] += 1;
                                                            }

                                                            else {
                                                                votes[0] += 1;
                                                            }
                                                        }

                                                        else {
                                                            if (x[18] <= 0.2891300320625305) {
                                                                votes[1] += 1;
                                                            }

                                                            else {
                                                                votes[1] += 1;
                                                            }
                                                        }
                                                    }

                                                    else {
                                                        votes[2] += 1;
                                                    }
                                                }
                                            }
                                        }

                                        else {
                                            if (x[6] <= 10.052737712860107) {
                                                if (x[13] <= 0.6529289186000824) {
                                                    votes[1] += 1;
                                                }

                                                else {
                                                    if (x[6] <= 9.966391563415527) {
                                                        if (x[15] <= 6.028969049453735) {
                                                            votes[0] += 1;
                                                        }

                                                        else {
                                                            votes[2] += 1;
                                                        }
                                                    }

                                                    else {
                                                        votes[1] += 1;
                                                    }
                                                }
                                            }

                                            else {
                                                if (x[1] <= -0.14905499666929245) {
                                                    votes[0] += 1;
                                                }

                                                else {
                                                    votes[2] += 1;
                                                }
                                            }
                                        }
                                    }
                                }
                            }
                        }

                        else {
                            if (x[0] <= 3.9363670349121094) {
                                votes[2] += 1;
                            }

                            else {
                                if (x[21] <= 7.303263425827026) {
                                    if (x[5] <= 0.9132587313652039) {
                                        votes[0] += 1;
                                    }

                                    else {
                                        if (x[0] <= 8.900012016296387) {
                                            if (x[10] <= 1.093570053577423) {
                                                votes[1] += 1;
                                            }

                                            else {
                                                if (x[17] <= 0.42675645649433136) {
                                                    if (x[21] <= 2.294028878211975) {
                                                        if (x[5] <= 1.2267574667930603) {
                                                            votes[1] += 1;
                                                        }

                                                        else {
                                                            if (x[15] <= 7.379597425460815) {
                                                                votes[1] += 1;
                                                            }

                                                            else {
                                                                votes[1] += 1;
                                                            }
                                                        }
                                                    }

                                                    else {
                                                        votes[1] += 1;
                                                    }
                                                }

                                                else {
                                                    votes[1] += 1;
                                                }
                                            }
                                        }

                                        else {
                                            if (x[21] <= 1.6472010612487793) {
                                                votes[0] += 1;
                                            }

                                            else {
                                                votes[2] += 1;
                                            }
                                        }
                                    }
                                }

                                else {
                                    if (x[7] <= 3.1523181200027466) {
                                        if (x[10] <= 2.4086633920669556) {
                                            votes[0] += 1;
                                        }

                                        else {
                                            votes[2] += 1;
                                        }
                                    }

                                    else {
                                        votes[0] += 1;
                                    }
                                }
                            }
                        }

                        // tree #5
                        if (x[7] <= 0.8607937693595886) {
                            if (x[18] <= 0.06122106313705444) {
                                if (x[14] <= 94.57509231567383) {
                                    if (x[0] <= 7.229614019393921) {
                                        votes[2] += 1;
                                    }

                                    else {
                                        if (x[13] <= 0.39156384766101837) {
                                            votes[1] += 1;
                                        }

                                        else {
                                            if (x[15] <= 2.812182307243347) {
                                                votes[2] += 1;
                                            }

                                            else {
                                                votes[0] += 1;
                                            }
                                        }
                                    }
                                }

                                else {
                                    if (x[2] <= -7.837583065032959) {
                                        if (x[7] <= 0.5316913723945618) {
                                            if (x[2] <= -9.573901653289795) {
                                                votes[2] += 1;
                                            }

                                            else {
                                                if (x[12] <= 1.2689152956008911) {
                                                    votes[0] += 1;
                                                }

                                                else {
                                                    if (x[1] <= -0.05690699815750122) {
                                                        votes[0] += 1;
                                                    }

                                                    else {
                                                        votes[2] += 1;
                                                    }
                                                }
                                            }
                                        }

                                        else {
                                            if (x[3] <= 0.7317907214164734) {
                                                votes[2] += 1;
                                            }

                                            else {
                                                votes[0] += 1;
                                            }
                                        }
                                    }

                                    else {
                                        if (x[17] <= -0.7059940099716187) {
                                            if (x[12] <= 1.3945822715759277) {
                                                votes[0] += 1;
                                            }

                                            else {
                                                votes[1] += 1;
                                            }
                                        }

                                        else {
                                            if (x[8] <= 10.839762210845947) {
                                                votes[0] += 1;
                                            }

                                            else {
                                                if (x[21] <= 0.21753059327602386) {
                                                    votes[1] += 1;
                                                }

                                                else {
                                                    votes[0] += 1;
                                                }
                                            }
                                        }
                                    }
                                }
                            }

                            else {
                                if (x[2] <= 9.022240161895752) {
                                    if (x[8] <= 11.267104625701904) {
                                        if (x[0] <= 7.62048602104187) {
                                            if (x[9] <= 9.42459774017334) {
                                                if (x[10] <= 0.47007207572460175) {
                                                    if (x[9] <= 9.218454360961914) {
                                                        votes[2] += 1;
                                                    }

                                                    else {
                                                        votes[2] += 1;
                                                    }
                                                }

                                                else {
                                                    votes[0] += 1;
                                                }
                                            }

                                            else {
                                                votes[0] += 1;
                                            }
                                        }

                                        else {
                                            if (x[1] <= -0.781048983335495) {
                                                votes[1] += 1;
                                            }

                                            else {
                                                if (x[2] <= 1.2671480178833008) {
                                                    votes[2] += 1;
                                                }

                                                else {
                                                    votes[0] += 1;
                                                }
                                            }
                                        }
                                    }

                                    else {
                                        if (x[13] <= 0.5635026097297668) {
                                            if (x[3] <= 0.5805924832820892) {
                                                if (x[9] <= 8.804533958435059) {
                                                    if (x[5] <= 0.4967767298221588) {
                                                        votes[2] += 1;
                                                    }

                                                    else {
                                                        votes[2] += 1;
                                                    }
                                                }

                                                else {
                                                    votes[1] += 1;
                                                }
                                            }

                                            else {
                                                if (x[2] <= 1.2343349773436785) {
                                                    if (x[7] <= 0.6272265315055847) {
                                                        votes[0] += 1;
                                                    }

                                                    else {
                                                        if (x[17] <= -0.5228333175182343) {
                                                            votes[2] += 1;
                                                        }

                                                        else {
                                                            votes[2] += 1;
                                                        }
                                                    }
                                                }

                                                else {
                                                    votes[0] += 1;
                                                }
                                            }
                                        }

                                        else {
                                            votes[0] += 1;
                                        }
                                    }
                                }

                                else {
                                    votes[2] += 1;
                                }
                            }
                        }

                        else {
                            if (x[4] <= 1.1463544368743896) {
                                if (x[3] <= 1.997145652770996) {
                                    if (x[2] <= 6.220834970474243) {
                                        if (x[8] <= 15.239124774932861) {
                                            if (x[5] <= 0.7909214496612549) {
                                                votes[0] += 1;
                                            }

                                            else {
                                                if (x[2] <= 1.148123987019062) {
                                                    if (x[5] <= 1.3324151635169983) {
                                                        if (x[15] <= 4.594321250915527) {
                                                            votes[2] += 1;
                                                        }

                                                        else {
                                                            votes[0] += 1;
                                                        }
                                                    }

                                                    else {
                                                        votes[2] += 1;
                                                    }
                                                }

                                                else {
                                                    if (x[4] <= 0.538918673992157) {
                                                        if (x[14] <= 95.57442092895508) {
                                                            votes[1] += 1;
                                                        }

                                                        else {
                                                            votes[0] += 1;
                                                        }
                                                    }

                                                    else {
                                                        if (x[9] <= 6.2912819385528564) {
                                                            if (x[5] <= 1.2640525102615356) {
                                                                votes[0] += 1;
                                                            }

                                                            else {
                                                                votes[1] += 1;
                                                            }
                                                        }

                                                        else {
                                                            if (x[2] <= 3.1877609491348267) {
                                                                votes[0] += 1;
                                                            }

                                                            else {
                                                                votes[1] += 1;
                                                            }
                                                        }
                                                    }
                                                }
                                            }
                                        }

                                        else {
                                            if (x[17] <= 0.11189008131623268) {
                                                votes[1] += 1;
                                            }

                                            else {
                                                votes[0] += 1;
                                            }
                                        }
                                    }

                                    else {
                                        if (x[18] <= 0.5548821091651917) {
                                            votes[2] += 1;
                                        }

                                        else {
                                            if (x[2] <= 8.91215705871582) {
                                                votes[1] += 1;
                                            }

                                            else {
                                                votes[2] += 1;
                                            }
                                        }
                                    }
                                }

                                else {
                                    if (x[7] <= 1.7726512551307678) {
                                        if (x[8] <= 14.69018030166626) {
                                            votes[2] += 1;
                                        }

                                        else {
                                            votes[0] += 1;
                                        }
                                    }

                                    else {
                                        votes[2] += 1;
                                    }
                                }
                            }

                            else {
                                if (x[11] <= 2.3368887901306152) {
                                    if (x[11] <= 1.0089507400989532) {
                                        votes[0] += 1;
                                    }

                                    else {
                                        if (x[8] <= 17.861380577087402) {
                                            if (x[15] <= 12.552831172943115) {
                                                if (x[21] <= 2.3812752962112427) {
                                                    if (x[9] <= 7.821457862854004) {
                                                        if (x[11] <= 1.2559596300125122) {
                                                            if (x[9] <= 5.696148633956909) {
                                                                votes[0] += 1;
                                                            }

                                                            else {
                                                                votes[1] += 1;
                                                            }
                                                        }

                                                        else {
                                                            votes[0] += 1;
                                                        }
                                                    }

                                                    else {
                                                        votes[2] += 1;
                                                    }
                                                }

                                                else {
                                                    if (x[2] <= 3.840988039970398) {
                                                        votes[1] += 1;
                                                    }

                                                    else {
                                                        votes[1] += 1;
                                                    }
                                                }
                                            }

                                            else {
                                                votes[0] += 1;
                                            }
                                        }

                                        else {
                                            votes[2] += 1;
                                        }
                                    }
                                }

                                else {
                                    if (x[1] <= 0.37284600734710693) {
                                        votes[0] += 1;
                                    }

                                    else {
                                        votes[2] += 1;
                                    }
                                }
                            }
                        }

                        // tree #6
                        if (x[0] <= 3.4407169818878174) {
                            if (x[0] <= 2.8487939834594727) {
                                votes[2] += 1;
                            }

                            else {
                                if (x[9] <= 7.028039932250977) {
                                    votes[2] += 1;
                                }

                                else {
                                    votes[0] += 1;
                                }
                            }
                        }

                        else {
                            if (x[5] <= 0.7913189232349396) {
                                if (x[6] <= 9.864179611206055) {
                                    if (x[1] <= -1.2283790111541748) {
                                        votes[1] += 1;
                                    }

                                    else {
                                        if (x[6] <= 9.719457149505615) {
                                            if (x[1] <= 0.4542490094900131) {
                                                if (x[11] <= 0.5094330906867981) {
                                                    votes[2] += 1;
                                                }

                                                else {
                                                    votes[0] += 1;
                                                }
                                            }

                                            else {
                                                votes[1] += 1;
                                            }
                                        }

                                        else {
                                            if (x[1] <= -0.6159280240535736) {
                                                if (x[13] <= 0.36588266491889954) {
                                                    votes[1] += 1;
                                                }

                                                else {
                                                    votes[0] += 1;
                                                }
                                            }

                                            else {
                                                if (x[14] <= 94.87823104858398) {
                                                    votes[2] += 1;
                                                }

                                                else {
                                                    if (x[14] <= 97.2498550415039) {
                                                        votes[0] += 1;
                                                    }

                                                    else {
                                                        if (x[16] <= -0.334785595536232) {
                                                            votes[0] += 1;
                                                        }

                                                        else {
                                                            votes[0] += 1;
                                                        }
                                                    }
                                                }
                                            }
                                        }
                                    }
                                }

                                else {
                                    if (x[11] <= 0.47194623947143555) {
                                        if (x[2] <= 2.808179020881653) {
                                            if (x[15] <= 2.6465003490448) {
                                                if (x[15] <= 1.426805019378662) {
                                                    votes[0] += 1;
                                                }

                                                else {
                                                    votes[0] += 1;
                                                }
                                            }

                                            else {
                                                votes[2] += 1;
                                            }
                                        }

                                        else {
                                            if (x[0] <= 8.43029499053955) {
                                                votes[0] += 1;
                                            }

                                            else {
                                                if (x[10] <= 0.42306965589523315) {
                                                    votes[1] += 1;
                                                }

                                                else {
                                                    if (x[5] <= 0.5685063302516937) {
                                                        votes[1] += 1;
                                                    }

                                                    else {
                                                        votes[1] += 1;
                                                    }
                                                }
                                            }
                                        }
                                    }

                                    else {
                                        if (x[14] <= 100.12239456176758) {
                                            if (x[2] <= -7.788427114486694) {
                                                if (x[0] <= 5.584259033203125) {
                                                    votes[0] += 1;
                                                }

                                                else {
                                                    if (x[1] <= 1.168724000453949) {
                                                        votes[2] += 1;
                                                    }

                                                    else {
                                                        votes[0] += 1;
                                                    }
                                                }
                                            }

                                            else {
                                                if (x[8] <= 10.828508377075195) {
                                                    votes[2] += 1;
                                                }

                                                else {
                                                    votes[0] += 1;
                                                }
                                            }
                                        }

                                        else {
                                            if (x[21] <= 0.484213724732399) {
                                                votes[1] += 1;
                                            }

                                            else {
                                                votes[0] += 1;
                                            }
                                        }
                                    }
                                }
                            }

                            else {
                                if (x[8] <= 12.026451110839844) {
                                    if (x[12] <= 3.0864555835723877) {
                                        if (x[16] <= 0.153687734156847) {
                                            if (x[9] <= 7.914257764816284) {
                                                if (x[5] <= 1.3403058052062988) {
                                                    votes[2] += 1;
                                                }

                                                else {
                                                    votes[0] += 1;
                                                }
                                            }

                                            else {
                                                votes[0] += 1;
                                            }
                                        }

                                        else {
                                            if (x[6] <= 9.864174365997314) {
                                                if (x[7] <= 0.8073709607124329) {
                                                    if (x[16] <= 0.5041169077157974) {
                                                        votes[2] += 1;
                                                    }

                                                    else {
                                                        votes[0] += 1;
                                                    }
                                                }

                                                else {
                                                    votes[0] += 1;
                                                }
                                            }

                                            else {
                                                votes[2] += 1;
                                            }
                                        }
                                    }

                                    else {
                                        votes[0] += 1;
                                    }
                                }

                                else {
                                    if (x[17] <= 0.4649427682161331) {
                                        if (x[12] <= 9.135661125183105) {
                                            if (x[4] <= 1.0475556254386902) {
                                                if (x[7] <= 1.7770050168037415) {
                                                    if (x[2] <= 4.666173934936523) {
                                                        if (x[13] <= 0.5766388475894928) {
                                                            votes[0] += 1;
                                                        }

                                                        else {
                                                            if (x[1] <= 0.5761869847774506) {
                                                                votes[1] += 1;
                                                            }

                                                            else {
                                                                votes[2] += 1;
                                                            }
                                                        }
                                                    }

                                                    else {
                                                        if (x[18] <= -0.10233763605356216) {
                                                            if (x[2] <= 5.005285978317261) {
                                                                votes[2] += 1;
                                                            }

                                                            else {
                                                                votes[2] += 1;
                                                            }
                                                        }

                                                        else {
                                                            votes[0] += 1;
                                                        }
                                                    }
                                                }

                                                else {
                                                    if (x[15] <= 10.508891582489014) {
                                                        if (x[6] <= 9.716224193572998) {
                                                            votes[1] += 1;
                                                        }

                                                        else {
                                                            if (x[21] <= 3.4698903560638428) {
                                                                votes[1] += 1;
                                                            }

                                                            else {
