#pragma once
#include <cstdarg>
namespace Eloquent {
    namespace ML {
        namespace Port {
            class FallDetectorPants {
                public:
                    /**
                    * Predict class for features vector
                    */
                    int predict(float *x) {
                        uint8_t votes[3] = { 0 };
                        // tree #1
                        if (x[5] <= 1.653741478919983) {
                            if (x[1] <= -5.721038103103638) {
                                if (x[10] <= 1.100447416305542) {
                                    if (x[1] <= -8.14811372756958) {
                                        votes[0] += 1;
                                    }

                                    else {
                                        if (x[15] <= 2.896304488182068) {
                                            if (x[0] <= 4.791154861450195) {
                                                votes[0] += 1;
                                            }

                                            else {
                                                votes[2] += 1;
                                            }
                                        }

                                        else {
                                            votes[0] += 1;
                                        }
                                    }
                                }

                                else {
                                    if (x[21] <= 7.256852865219116) {
                                        if (x[1] <= -7.140890121459961) {
                                            if (x[4] <= 0.5954824984073639) {
                                                if (x[4] <= 0.5632382035255432) {
                                                    votes[0] += 1;
                                                }

                                                else {
                                                    votes[2] += 1;
                                                }
                                            }

                                            else {
                                                votes[0] += 1;
                                            }
                                        }

                                        else {
                                            votes[1] += 1;
                                        }
                                    }

                                    else {
                                        votes[1] += 1;
                                    }
                                }
                            }

                            else {
                                if (x[15] <= 7.800204038619995) {
                                    votes[2] += 1;
                                }

                                else {
                                    if (x[7] <= 1.5526870489120483) {
                                        votes[2] += 1;
                                    }

                                    else {
                                        votes[1] += 1;
                                    }
                                }
                            }
                        }

                        else {
                            if (x[2] <= 8.543875217437744) {
                                if (x[4] <= 0.8155089616775513) {
                                    if (x[1] <= -7.960111141204834) {
                                        votes[0] += 1;
                                    }

                                    else {
                                        if (x[11] <= 1.2969677448272705) {
                                            votes[2] += 1;
                                        }

                                        else {
                                            if (x[2] <= 2.4334550201892853) {
                                                votes[2] += 1;
                                            }

                                            else {
                                                votes[2] += 1;
                                            }
                                        }
                                    }
                                }

                                else {
                                    if (x[16] <= -0.47879718244075775) {
                                        if (x[16] <= -0.585495799779892) {
                                            if (x[13] <= 2.0676631927490234) {
                                                votes[2] += 1;
                                            }

                                            else {
                                                votes[1] += 1;
                                            }
                                        }

                                        else {
                                            votes[0] += 1;
                                        }
                                    }

                                    else {
                                        if (x[10] <= 0.9766884446144104) {
                                            if (x[0] <= -6.578438997268677) {
                                                votes[2] += 1;
                                            }

                                            else {
                                                votes[0] += 1;
                                            }
                                        }

                                        else {
                                            if (x[11] <= 2.0714406967163086) {
                                                if (x[14] <= 108.50471115112305) {
                                                    if (x[1] <= -8.220993995666504) {
                                                        if (x[6] <= 10.31614875793457) {
                                                            votes[0] += 1;
                                                        }

                                                        else {
                                                            votes[1] += 1;
                                                        }
                                                    }

                                                    else {
                                                        if (x[21] <= 2.945053458213806) {
                                                            votes[0] += 1;
                                                        }

                                                        else {
                                                            if (x[8] <= 14.093453407287598) {
                                                                votes[1] += 1;
                                                            }

                                                            else {
                                                                votes[0] += 1;
                                                            }
                                                        }
                                                    }
                                                }

                                                else {
                                                    if (x[15] <= 6.722116470336914) {
                                                        votes[0] += 1;
                                                    }

                                                    else {
                                                        votes[0] += 1;
                                                    }
                                                }
                                            }

                                            else {
                                                if (x[18] <= 4.4451985359191895) {
                                                    if (x[2] <= -3.7291760444641113) {
                                                        if (x[2] <= -6.24143385887146) {
                                                            votes[2] += 1;
                                                        }

                                                        else {
                                                            votes[0] += 1;
                                                        }
                                                    }

                                                    else {
                                                        if (x[9] <= 5.2767579555511475) {
                                                            if (x[1] <= -5.335731029510498) {
                                                                votes[0] += 1;
                                                            }

                                                            else {
                                                                votes[2] += 1;
                                                            }
                                                        }

                                                        else {
                                                            if (x[4] <= 1.4365565180778503) {
                                                                votes[1] += 1;
                                                            }

                                                            else {
                                                                votes[1] += 1;
                                                            }
                                                        }
                                                    }
                                                }

                                                else {
                                                    votes[0] += 1;
                                                }
                                            }
                                        }
                                    }
                                }
                            }

                            else {
                                votes[2] += 1;
                            }
                        }

                        // tree #2
                        if (x[15] <= 7.8823277950286865) {
                            if (x[21] <= 0.372293084859848) {
                                if (x[8] <= 9.963238716125488) {
                                    votes[0] += 1;
                                }

                                else {
                                    if (x[3] <= 0.41655123233795166) {
                                        if (x[15] <= 0.7185836732387543) {
                                            if (x[2] <= 5.187575131654739) {
                                                votes[0] += 1;
                                            }

                                            else {
                                                votes[2] += 1;
                                            }
                                        }

                                        else {
                                            votes[2] += 1;
                                        }
                                    }

                                    else {
                                        if (x[1] <= -8.239745140075684) {
                                            votes[0] += 1;
                                        }

                                        else {
                                            votes[0] += 1;
                                        }
                                    }
                                }
                            }

                            else {
                                if (x[0] <= 6.299687147140503) {
                                    if (x[1] <= -7.10504412651062) {
                                        if (x[21] <= 3.384274959564209) {
                                            if (x[0] <= 4.7336249351501465) {
                                                if (x[21] <= 3.195456027984619) {
                                                    votes[0] += 1;
                                                }

                                                else {
                                                    if (x[6] <= 10.030214786529541) {
                                                        votes[0] += 1;
                                                    }

                                                    else {
                                                        votes[0] += 1;
                                                    }
                                                }
                                            }

                                            else {
                                                if (x[2] <= 2.7936270236968994) {
                                                    if (x[8] <= 11.517119884490967) {
                                                        if (x[13] <= 0.6101711988449097) {
                                                            if (x[0] <= 5.013941049575806) {
                                                                votes[0] += 1;
                                                            }

                                                            else {
                                                                votes[0] += 1;
                                                            }
                                                        }

                                                        else {
                                                            if (x[16] <= -0.1038406603038311) {
                                                                votes[0] += 1;
                                                            }

                                                            else {
                                                                votes[2] += 1;
                                                            }
                                                        }
                                                    }

                                                    else {
                                                        votes[0] += 1;
                                                    }
                                                }

                                                else {
                                                    votes[2] += 1;
                                                }
                                            }
                                        }

                                        else {
                                            if (x[1] <= -7.788518190383911) {
                                                if (x[5] <= 2.369998335838318) {
                                                    votes[0] += 1;
                                                }

                                                else {
                                                    votes[1] += 1;
                                                }
                                            }

                                            else {
                                                if (x[9] <= 7.475269556045532) {
                                                    votes[0] += 1;
                                                }

                                                else {
                                                    if (x[13] <= 1.3615415692329407) {
                                                        if (x[6] <= 9.97847604751587) {
                                                            votes[1] += 1;
                                                        }

                                                        else {
                                                            votes[1] += 1;
                                                        }
                                                    }

                                                    else {
                                                        votes[1] += 1;
                                                    }
                                                }
                                            }
                                        }
                                    }

                                    else {
                                        if (x[1] <= -5.699523210525513) {
                                            if (x[7] <= 1.068648338317871) {
                                                if (x[4] <= 0.7143398523330688) {
                                                    votes[0] += 1;
                                                }

                                                else {
                                                    votes[2] += 1;
                                                }
                                            }

                                            else {
                                                votes[1] += 1;
                                            }
                                        }

                                        else {
                                            if (x[1] <= -5.2598230838775635) {
                                                votes[2] += 1;
                                            }

                                            else {
                                                votes[2] += 1;
                                            }
                                        }
                                    }
                                }

                                else {
                                    votes[1] += 1;
                                }
                            }
                        }

                        else {
                            if (x[2] <= 8.464616298675537) {
                                if (x[3] <= 4.214104413986206) {
                                    if (x[17] <= 0.3945099711418152) {
                                        if (x[4] <= 0.8736839294433594) {
                                            votes[2] += 1;
                                        }

                                        else {
                                            if (x[9] <= 4.475254774093628) {
                                                if (x[2] <= 3.41523205768317) {
                                                    votes[0] += 1;
                                                }

                                                else {
                                                    votes[2] += 1;
                                                }
                                            }

                                            else {
                                                if (x[3] <= 2.0690678358078003) {
                                                    if (x[4] <= 2.464950680732727) {
                                                        if (x[13] <= 2.5182489156723022) {
                                                            if (x[2] <= -3.7706949710845947) {
                                                                votes[1] += 1;
                                                            }

                                                            else {
                                                                votes[1] += 1;
                                                            }
                                                        }

                                                        else {
                                                            if (x[15] <= 11.298517227172852) {
                                                                votes[0] += 1;
                                                            }

                                                            else {
                                                                votes[1] += 1;
                                                            }
                                                        }
                                                    }

                                                    else {
                                                        votes[2] += 1;
                                                    }
                                                }

                                                else {
                                                    if (x[1] <= -3.6769280433654785) {
                                                        if (x[18] <= 2.687644839286804) {
                                                            votes[1] += 1;
                                                        }

                                                        else {
                                                            votes[1] += 1;
                                                        }
                                                    }

                                                    else {
                                                        votes[2] += 1;
                                                    }
                                                }
                                            }
                                        }
                                    }

                                    else {
                                        if (x[7] <= 1.6919670104980469) {
                                            votes[1] += 1;
                                        }

                                        else {
                                            if (x[4] <= 1.915205180644989) {
                                                votes[0] += 1;
                                            }

                                            else {
                                                votes[0] += 1;
                                            }
                                        }
                                    }
                                }

                                else {
                                    if (x[7] <= 3.89778470993042) {
                                        votes[0] += 1;
                                    }

                                    else {
                                        votes[2] += 1;
                                    }
                                }
                            }

                            else {
                                votes[2] += 1;
                            }
                        }

                        // tree #3
                        if (x[11] <= 2.006601333618164) {
                            if (x[2] <= 7.84762716293335) {
                                if (x[14] <= 100.51527786254883) {
                                    if (x[1] <= -6.610584020614624) {
                                        if (x[8] <= 13.727243900299072) {
                                            if (x[1] <= -7.614309072494507) {
                                                if (x[13] <= 0.6519717872142792) {
                                                    if (x[9] <= 8.668726444244385) {
                                                        if (x[9] <= 8.655724048614502) {
                                                            votes[0] += 1;
                                                        }

                                                        else {
                                                            votes[2] += 1;
                                                        }
                                                    }

                                                    else {
                                                        votes[0] += 1;
                                                    }
                                                }

                                                else {
                                                    votes[0] += 1;
                                                }
                                            }

                                            else {
                                                if (x[11] <= 1.5822622776031494) {
                                                    if (x[18] <= 1.160081684589386) {
                                                        votes[0] += 1;
                                                    }

                                                    else {
                                                        votes[0] += 1;
                                                    }
                                                }

                                                else {
                                                    votes[1] += 1;
                                                }
                                            }
                                        }

                                        else {
                                            votes[1] += 1;
                                        }
                                    }

                                    else {
                                        if (x[2] <= 0.847104012966156) {
                                            votes[2] += 1;
                                        }

                                        else {
                                            if (x[2] <= 7.175455093383789) {
                                                votes[1] += 1;
                                            }

                                            else {
                                                votes[0] += 1;
                                            }
                                        }
                                    }
                                }

                                else {
                                    if (x[1] <= -5.971004962921143) {
                                        if (x[4] <= 0.9740603566169739) {
                                            if (x[21] <= 3.6584936380386353) {
                                                if (x[3] <= 1.0209873914718628) {
                                                    if (x[2] <= 0.21863800287246704) {
                                                        votes[0] += 1;
                                                    }

                                                    else {
                                                        votes[2] += 1;
                                                    }
                                                }

                                                else {
                                                    votes[0] += 1;
                                                }
                                            }

                                            else {
                                                if (x[0] <= 4.7320170402526855) {
                                                    votes[0] += 1;
                                                }

                                                else {
                                                    if (x[3] <= 1.539629876613617) {
                                                        votes[1] += 1;
                                                    }

                                                    else {
                                                        votes[0] += 1;
                                                    }
                                                }
                                            }
                                        }

                                        else {
                                            if (x[7] <= 1.167133629322052) {
                                                if (x[1] <= -7.697314023971558) {
                                                    votes[0] += 1;
                                                }

                                                else {
                                                    votes[1] += 1;
                                                }
                                            }

                                            else {
                                                if (x[4] <= 1.6750239133834839) {
                                                    if (x[12] <= 5.889549732208252) {
                                                        if (x[2] <= -3.3284130096435547) {
                                                            votes[0] += 1;
                                                        }

                                                        else {
                                                            if (x[12] <= 4.643005609512329) {
                                                                votes[1] += 1;
                                                            }

                                                            else {
                                                                votes[1] += 1;
                                                            }
                                                        }
                                                    }

                                                    else {
                                                        votes[0] += 1;
                                                    }
                                                }

                                                else {
                                                    votes[2] += 1;
                                                }
                                            }
                                        }
                                    }

                                    else {
                                        votes[2] += 1;
                                    }
                                }
                            }

                            else {
                                votes[2] += 1;
                            }
                        }

                        else {
                            if (x[1] <= -3.835108995437622) {
                                if (x[20] <= 0.009999999776482582) {
                                    if (x[19] <= 0.029999999329447746) {
                                        if (x[17] <= 0.4519094228744507) {
                                            if (x[4] <= 1.3966972827911377) {
                                                if (x[9] <= 7.400461435317993) {
                                                    if (x[4] <= 1.2769997715950012) {
                                                        if (x[5] <= 1.700945496559143) {
                                                            if (x[11] <= 2.0836892127990723) {
                                                                votes[1] += 1;
                                                            }

                                                            else {
                                                                votes[1] += 1;
                                                            }
                                                        }

                                                        else {
                                                            votes[1] += 1;
                                                        }
                                                    }

                                                    else {
                                                        votes[0] += 1;
                                                    }
                                                }

                                                else {
                                                    if (x[5] <= 2.8490145206451416) {
                                                        votes[0] += 1;
                                                    }

                                                    else {
                                                        votes[1] += 1;
                                                    }
                                                }
                                            }

                                            else {
                                                if (x[16] <= -0.32334552705287933) {
                                                    if (x[18] <= 1.2786155939102173) {
                                                        votes[1] += 1;
                                                    }

                                                    else {
                                                        votes[1] += 1;
                                                    }
                                                }

                                                else {
                                                    if (x[0] <= 3.940566897392273) {
                                                        votes[1] += 1;
                                                    }

                                                    else {
                                                        if (x[4] <= 1.9891924858093262) {
                                                            if (x[1] <= -8.095166206359863) {
                                                                votes[1] += 1;
                                                            }

                                                            else {
                                                                votes[1] += 1;
                                                            }
                                                        }

                                                        else {
                                                            votes[1] += 1;
                                                        }
                                                    }
                                                }
                                            }
                                        }

                                        else {
                                            if (x[16] <= -0.24494826048612595) {
                                                votes[0] += 1;
                                            }

                                            else {
                                                votes[1] += 1;
                                            }
                                        }
                                    }

                                    else {
                                        votes[0] += 1;
                                    }
                                }

                                else {
                                    if (x[2] <= 3.41523205768317) {
                                        votes[0] += 1;
                                    }

                                    else {
                                        votes[2] += 1;
                                    }
                                }
                            }

                            else {
                                votes[2] += 1;
                            }
                        }

                        // tree #4
                        if (x[21] <= 5.991801023483276) {
                            if (x[21] <= 0.3823559284210205) {
                                if (x[0] <= -1.2533639967441559) {
                                    votes[0] += 1;
                                }

                                else {
                                    if (x[14] <= 96.07196426391602) {
                                        votes[0] += 1;
                                    }

                                    else {
                                        if (x[12] <= 1.9596991539001465) {
                                            votes[2] += 1;
                                        }

                                        else {
                                            votes[0] += 1;
                                        }
                                    }
                                }
                            }

                            else {
                                if (x[4] <= 1.065663754940033) {
                                    if (x[2] <= 7.84762716293335) {
                                        if (x[16] <= 0.699387401342392) {
                                            if (x[12] <= 3.041888475418091) {
                                                if (x[4] <= 0.4035409837961197) {
                                                    votes[0] += 1;
                                                }

                                                else {
                                                    if (x[1] <= -7.483734130859375) {
                                                        if (x[0] <= 4.940938949584961) {
                                                            if (x[2] <= 3.638880968093872) {
                                                                votes[0] += 1;
                                                            }

                                                            else {
                                                                votes[0] += 1;
                                                            }
                                                        }

                                                        else {
                                                            if (x[15] <= 2.900805950164795) {
                                                                votes[2] += 1;
                                                            }

                                                            else {
                                                                votes[0] += 1;
                                                            }
                                                        }
                                                    }

                                                    else {
                                                        votes[2] += 1;
                                                    }
                                                }
                                            }

                                            else {
                                                if (x[2] <= 3.3688600063323975) {
                                                    if (x[0] <= -6.321513891220093) {
                                                        votes[2] += 1;
                                                    }

                                                    else {
                                                        if (x[5] <= 0.4982246160507202) {
                                                            votes[0] += 1;
                                                        }

                                                        else {
                                                            votes[0] += 1;
                                                        }
                                                    }
                                                }

                                                else {
                                                    if (x[10] <= 0.8845524489879608) {
                                                        votes[0] += 1;
                                                    }

                                                    else {
                                                        if (x[4] <= 0.8033673763275146) {
                                                            votes[0] += 1;
                                                        }

                                                        else {
                                                            if (x[0] <= 2.4907419681549072) {
                                                                votes[0] += 1;
                                                            }

                                                            else {
                                                                votes[1] += 1;
                                                            }
                                                        }
                                                    }
                                                }
                                            }
                                        }

                                        else {
                                            votes[2] += 1;
                                        }
                                    }

                                    else {
                                        votes[2] += 1;
                                    }
                                }

                                else {
                                    if (x[6] <= 10.004909992218018) {
                                        if (x[8] <= 14.411317825317383) {
                                            if (x[21] <= 5.002348184585571) {
                                                if (x[3] <= 0.9172016680240631) {
                                                    votes[2] += 1;
                                                }

                                                else {
                                                    votes[0] += 1;
                                                }
                                            }

                                            else {
                                                if (x[10] <= 2.072832703590393) {
                                                    if (x[2] <= 1.9571499824523926) {
                                                        votes[0] += 1;
                                                    }

                                                    else {
                                                        votes[1] += 1;
                                                    }
                                                }

                                                else {
                                                    votes[0] += 1;
                                                }
                                            }
                                        }

                                        else {
                                            votes[2] += 1;
                                        }
                                    }

                                    else {
                                        if (x[7] <= 1.1568105220794678) {
                                            if (x[6] <= 10.076460361480713) {
                                                votes[0] += 1;
                                            }

                                            else {
                                                votes[2] += 1;
                                            }
                                        }

                                        else {
                                            if (x[1] <= -4.0770169496536255) {
                                                if (x[14] <= 108.70560073852539) {
                                                    votes[1] += 1;
                                                }

                                                else {
                                                    votes[1] += 1;
                                                }
                                            }

                                            else {
                                                votes[2] += 1;
                                            }
                                        }
                                    }
                                }
                            }
                        }

                        else {
                            if (x[2] <= 8.464616298675537) {
                                if (x[11] <= 2.192173957824707) {
                                    if (x[3] <= 2.035359263420105) {
                                        if (x[18] <= 0.9360155761241913) {
                                            votes[0] += 1;
                                        }

                                        else {
                                            if (x[1] <= -6.521439790725708) {
                                                votes[0] += 1;
                                            }

                                            else {
                                                votes[2] += 1;
                                            }
                                        }
                                    }

                                    else {
                                        votes[1] += 1;
                                    }
                                }

                                else {
                                    if (x[13] <= 5.532873153686523) {
                                        if (x[8] <= 14.739320278167725) {
                                            if (x[6] <= 10.018584728240967) {
                                                if (x[5] <= 2.022866666316986) {
                                                    if (x[10] <= 1.7274311184883118) {
                                                        votes[1] += 1;
                                                    }

                                                    else {
                                                        votes[0] += 1;
                                                    }
                                                }

                                                else {
                                                    if (x[6] <= 9.871330738067627) {
                                                        votes[1] += 1;
                                                    }

                                                    else {
                                                        votes[1] += 1;
                                                    }
                                                }
                                            }

                                            else {
                                                if (x[8] <= 12.591935634613037) {
                                                    votes[1] += 1;
                                                }

                                                else {
                                                    votes[0] += 1;
                                                }
                                            }
                                        }

                                        else {
                                            if (x[1] <= -4.725319147109985) {
                                                if (x[20] <= 0.009999999776482582) {
                                                    if (x[7] <= 3.098561644554138) {
                                                        if (x[15] <= 8.548669815063477) {
                                                            if (x[6] <= 10.153804302215576) {
                                                                votes[0] += 1;
                                                            }

                                                            else {
                                                                votes[1] += 1;
                                                            }
                                                        }

                                                        else {
                                                            if (x[2] <= -1.0536980032920837) {
                                                                votes[1] += 1;
                                                            }

                                                            else {
                                                                votes[1] += 1;
                                                            }
                                                        }
                                                    }

                                                    else {
                                                        votes[0] += 1;
                                                    }
                                                }

                                                else {
                                                    votes[0] += 1;
                                                }
                                            }

                                            else {
                                                votes[2] += 1;
                                            }
                                        }
                                    }

                                    else {
                                        if (x[4] <= 1.2696168422698975) {
                                            votes[0] += 1;
                                        }

                                        else {
                                            votes[2] += 1;
                                        }
                                    }
                                }
                            }

                            else {
                                votes[2] += 1;
                            }
                        }

                        // tree #5
                        if (x[1] <= -4.313385009765625) {
                            if (x[21] <= 5.989981412887573) {
                                if (x[10] <= 1.266315758228302) {
                                    if (x[1] <= -7.799795150756836) {
                                        if (x[0] <= 4.954735994338989) {
                                            votes[0] += 1;
                                        }

                                        else {
                                            if (x[0] <= 5.108623027801514) {
                                                if (x[15] <= 2.9047601222991943) {
                                                    if (x[11] <= 0.7306829690933228) {
                                                        votes[0] += 1;
                                                    }

                                                    else {
                                                        if (x[11] <= 0.873369961977005) {
                                                            votes[2] += 1;
                                                        }

                                                        else {
                                                            votes[2] += 1;
                                                        }
                                                    }
                                                }

                                                else {
                                                    votes[0] += 1;
                                                }
                                            }

                                            else {
                                                votes[0] += 1;
                                            }
                                        }
                                    }

                                    else {
                                        if (x[8] <= 13.106459617614746) {
                                            if (x[12] <= 3.060490846633911) {
                                                if (x[18] <= -0.24809520691633224) {
                                                    votes[0] += 1;
                                                }

                                                else {
                                                    if (x[2] <= -5.9992711544036865) {
                                                        votes[2] += 1;
                                                    }

                                                    else {
                                                        if (x[17] <= 0.2198404036462307) {
                                                            votes[0] += 1;
                                                        }

                                                        else {
                                                            votes[2] += 1;
                                                        }
                                                    }
                                                }
                                            }

                                            else {
                                                if (x[16] <= -0.4729575216770172) {
                                                    votes[1] += 1;
                                                }

                                                else {
                                                    votes[0] += 1;
                                                }
                                            }
                                        }

                                        else {
                                            if (x[13] <= 1.0745272040367126) {
                                                votes[1] += 1;
                                            }

                                            else {
                                                votes[0] += 1;
                                            }
                                        }
                                    }
                                }

                                else {
                                    if (x[15] <= 4.6020941734313965) {
                                        if (x[17] <= -0.2680169567465782) {
                                            if (x[14] <= 100.5652961730957) {
                                                votes[2] += 1;
                                            }

                                            else {
                                                votes[0] += 1;
                                            }
                                        }

                                        else {
                                            votes[0] += 1;
                                        }
                                    }

                                    else {
                                        if (x[2] <= 1.664119005203247) {
                                            if (x[18] <= 0.9975941479206085) {
                                                votes[0] += 1;
                                            }

                                            else {
                                                votes[1] += 1;
                                            }
                                        }

                                        else {
                                            if (x[8] <= 14.093453407287598) {
                                                if (x[1] <= -8.002811193466187) {
                                                    if (x[6] <= 9.926248550415039) {
                                                        votes[0] += 1;
                                                    }

                                                    else {
                                                        votes[1] += 1;
                                                    }
                                                }

                                                else {
                                                    if (x[9] <= 6.895821809768677) {
                                                        votes[1] += 1;
                                                    }

                                                    else {
                                                        votes[1] += 1;
                                                    }
                                                }
                                            }

                                            else {
                                                votes[0] += 1;
                                            }
                                        }
                                    }
                                }
                            }

                            else {
                                if (x[11] <= 2.2927653789520264) {
                                    if (x[8] <= 13.034111976623535) {
                                        votes[0] += 1;
                                    }

                                    else {
                                        if (x[15] <= 5.51304030418396) {
                                            votes[1] += 1;
                                        }

                                        else {
                                            if (x[5] <= 1.8956835269927979) {
                                                votes[1] += 1;
                                            }

                                            else {
                                                if (x[2] <= -3.446004033088684) {
                                                    votes[1] += 1;
                                                }

                                                else {
                                                    if (x[17] <= 0.39862461388111115) {
                                                        votes[0] += 1;
                                                    }

                                                    else {
                                                        votes[0] += 1;
                                                    }
                                                }
                                            }
                                        }
                                    }
                                }

                                else {
                                    if (x[8] <= 21.470020294189453) {
                                        if (x[16] <= -0.3519425094127655) {
                                            votes[0] += 1;
                                        }

                                        else {
                                            if (x[10] <= 1.08573317527771) {
                                                votes[0] += 1;
                                            }

                                            else {
                                                if (x[9] <= 4.475254774093628) {
                                                    if (x[11] <= 3.1352715492248535) {
                                                        votes[2] += 1;
                                                    }

                                                    else {
                                                        votes[0] += 1;
                                                    }
                                                }

                                                else {
                                                    if (x[21] <= 16.13545799255371) {
                                                        if (x[13] <= 2.603187084197998) {
                                                            if (x[15] <= 6.741466760635376) {
                                                                votes[1] += 1;
                                                            }

                                                            else {
                                                                votes[1] += 1;
                                                            }
                                                        }

                                                        else {
                                                            if (x[3] <= 1.8350495100021362) {
                                                                votes[0] += 1;
                                                            }

                                                            else {
                                                                votes[1] += 1;
                                                            }
                                                        }
                                                    }

                                                    else {
                                                        votes[1] += 1;
                                                    }
                                                }
                                            }
                                        }
                                    }

                                    else {
                                        if (x[8] <= 23.942237854003906) {
                                            votes[0] += 1;
                                        }

                                        else {
                                            if (x[17] <= 0.2770339548587799) {
                                                if (x[7] <= 2.9369332790374756) {
                                                    votes[1] += 1;
                                                }

                                                else {
                                                    votes[1] += 1;
                                                }
                                            }

                                            else {
                                                votes[0] += 1;
                                            }
                                        }
                                    }
                                }
                            }
                        }

                        else {
                            if (x[11] <= 2.474916934967041) {
                                votes[2] += 1;
                            }

                            else {
                                if (x[12] <= 9.1362943649292) {
                                    votes[1] += 1;
                                }

                                else {
                                    votes[2] += 1;
                                }
                            }
                        }

                        // tree #6
                        if (x[8] <= 13.022472381591797) {
                            if (x[11] <= 0.5249635875225067) {
                                if (x[6] <= 9.78121566772461) {
                                    votes[0] += 1;
                                }

                                else {
                                    if (x[12] <= 2.1140065789222717) {
                                        votes[2] += 1;
                                    }

                                    else {
                                        votes[0] += 1;
                                    }
                                }
                            }

                            else {
                                if (x[11] <= 2.1987768411636353) {
                                    if (x[6] <= 9.89048433303833) {
                                        if (x[1] <= -4.311707019805908) {
                                            if (x[0] <= 3.9410300254821777) {
                                                votes[0] += 1;
                                            }

                                            else {
                                                if (x[2] <= 3.394821047782898) {
                                                    votes[0] += 1;
                                                }

                                                else {
                                                    votes[1] += 1;
                                                }
                                            }
                                        }

                                        else {
                                            votes[2] += 1;
                                        }
                                    }

                                    else {
                                        if (x[1] <= -7.462646961212158) {
                                            if (x[15] <= 2.6286749839782715) {
                                                if (x[0] <= 4.965458869934082) {
                                                    votes[0] += 1;
                                                }

                                                else {
                                                    votes[2] += 1;
                                                }
                                            }

                                            else {
                                                if (x[17] <= 0.43684694170951843) {
                                                    votes[0] += 1;
                                                }

                                                else {
                                                    if (x[3] <= 1.2802044749259949) {
                                                        votes[0] += 1;
                                                    }

                                                    else {
                                                        votes[0] += 1;
                                                    }
                                                }
                                            }
                                        }

                                        else {
                                            if (x[1] <= -6.965043067932129) {
                                                votes[2] += 1;
                                            }

                                            else {
                                                votes[2] += 1;
                                            }
                                        }
                                    }
                                }

                                else {
                                    if (x[12] <= 6.858700275421143) {
                                        votes[1] += 1;
                                    }

                                    else {
                                        votes[0] += 1;
                                    }
                                }
                            }
                        }

                        else {
                            if (x[4] <= 1.093291997909546) {
                                if (x[0] <= 1.7803999781608582) {
                                    if (x[12] <= 6.0568883419036865) {
                                        if (x[1] <= -5.846455097198486) {
                                            votes[0] += 1;
                                        }

                                        else {
                                            votes[0] += 1;
                                        }
                                    }

                                    else {
                                        if (x[8] <= 13.485597133636475) {
                                            votes[0] += 1;
                                        }

                                        else {
                                            if (x[15] <= 7.888922929763794) {
                                                votes[2] += 1;
                                            }

                                            else {
                                                if (x[12] <= 14.192611694335938) {
                                                    if (x[1] <= -6.875708818435669) {
                                                        votes[0] += 1;
                                                    }

                                                    else {
                                                        votes[2] += 1;
                                                    }
                                                }

                                                else {
                                                    votes[1] += 1;
                                                }
                                            }
                                        }
                                    }
                                }

                                else {
                                    if (x[4] <= 0.8139894008636475) {
                                        votes[0] += 1;
                                    }

                                    else {
                                        if (x[2] <= 2.434798002243042) {
                                            votes[0] += 1;
                                        }

                                        else {
                                            votes[1] += 1;
                                        }
                                    }
                                }
                            }

                            else {
                                if (x[1] <= -3.517927050590515) {
                                    if (x[16] <= -0.47879718244075775) {
                                        if (x[16] <= -0.5928045511245728) {
                                            votes[1] += 1;
                                        }

                                        else {
                                            votes[0] += 1;
                                        }
                                    }

                                    else {
                                        if (x[9] <= 5.2767579555511475) {
                                            if (x[16] <= 0.009928222745656967) {
                                                votes[2] += 1;
                                            }

                                            else {
                                                votes[0] += 1;
                                            }
                                        }

                                        else {
                                            if (x[17] <= 0.6718625426292419) {
                                                if (x[3] <= 1.479866087436676) {
                                                    if (x[13] <= 1.170037567615509) {
                                                        if (x[21] <= 3.0005874633789062) {
                                                            votes[1] += 1;
                                                        }

                                                        else {
                                                            if (x[5] <= 2.199530839920044) {
                                                                votes[1] += 1;
                                                            }

                                                            else {
                                                                votes[1] += 1;
                                                            }
                                                        }
                                                    }

                                                    else {
                                                        if (x[7] <= 1.6153990030288696) {
                                                            votes[0] += 1;
                                                        }

                                                        else {
                                                            votes[1] += 1;
                                                        }
                                                    }
                                                }

                                                else {
                                                    if (x[21] <= 44.83914756774902) {
                                                        if (x[0] <= 3.8666590452194214) {
                                                            if (x[7] <= 1.369067907333374) {
                                                                votes[1] += 1;
                                                            }

                                                            else {
                                                                votes[1] += 1;
                                                            }
                                                        }

                                                        else {
                                                            if (x[21] <= 7.712049245834351) {
                                                                votes[1] += 1;
                                                            }

                                                            else {
                                                                votes[1] += 1;
                                                            }
                                                        }
                                                    }

                                                    else {
                                                        votes[0] += 1;
                                                    }
                                                }
                                            }

                                            else {
                                                votes[0] += 1;
                                            }
                                        }
                                    }
                                }

                                else {
                                    votes[2] += 1;
                                }
                            }
                        }

                        // tree #7
                        if (x[7] <= 1.16098552942276) {
                            if (x[13] <= 0.32740122079849243) {
                                if (x[14] <= 96.07196426391602) {
                                    votes[0] += 1;
                                }

                                else {
                                    if (x[0] <= 3.0730479955673218) {
                                        votes[2] += 1;
                                    }

                                    else {
                                        votes[0] += 1;
                                    }
                                }
                            }

                            else {
                                if (x[2] <= -5.830770969390869) {
                                    votes[2] += 1;
                                }

                                else {
                                    if (x[2] <= 7.747380018234253) {
                                        if (x[1] <= -7.1673970222473145) {
                                            if (x[8] <= 11.294129848480225) {
                                                if (x[6] <= 9.903246879577637) {
                                                    if (x[2] <= 3.5740420818328857) {
                                                        votes[0] += 1;
                                                    }

                                                    else {
                                                        votes[1] += 1;
                                                    }
                                                }

                                                else {
                                                    if (x[5] <= 1.1047528386116028) {
                                                        if (x[0] <= 5.008255958557129) {
                                                            if (x[4] <= 0.39439280331134796) {
                                                                votes[0] += 1;
                                                            }

                                                            else {
                                                                votes[2] += 1;
                                                            }
                                                        }

                                                        else {
                                                            votes[0] += 1;
                                                        }
                                                    }

                                                    else {
                                                        if (x[1] <= -8.418663024902344) {
                                                            votes[2] += 1;
                                                        }

                                                        else {
                                                            votes[2] += 1;
                                                        }
                                                    }
                                                }
                                            }

                                            else {
                                                if (x[18] <= 1.1959236860275269) {
                                                    votes[0] += 1;
                                                }

                                                else {
                                                    if (x[17] <= 0.3942214250564575) {
                                                        votes[0] += 1;
                                                    }

                                                    else {
                                                        votes[0] += 1;
                                                    }
                                                }
                                            }
                                        }

                                        else {
                                            if (x[0] <= 5.2726359367370605) {
                                                if (x[0] <= -2.919999897480011) {
                                                    votes[2] += 1;
                                                }

                                                else {
                                                    if (x[1] <= -6.73329496383667) {
                                                        votes[2] += 1;
                                                    }

                                                    else {
                                                        votes[0] += 1;
                                                    }
                                                }
                                            }

                                            else {
                                                votes[1] += 1;
                                            }
                                        }
                                    }

                                    else {
                                        if (x[1] <= -4.081725120544434) {
                                            votes[0] += 1;
                                        }

                                        else {
                                            votes[2] += 1;
                                        }
                                    }
                                }
                            }
                        }

                        else {
                            if (x[17] <= 0.1601371169090271) {
                                if (x[1] <= -3.7738699913024902) {
                                    if (x[8] <= 13.645976066589355) {
                                        if (x[14] <= 98.39634323120117) {
                                            if (x[3] <= 1.683785319328308) {
                                                votes[0] += 1;
                                            }

                                            else {
                                                votes[1] += 1;
                                            }
                                        }

                                        else {
                                            votes[0] += 1;
                                        }
                                    }

                                    else {
                                        if (x[13] <= 0.8006181418895721) {
                                            votes[2] += 1;
                                        }

                                        else {
                                            if (x[10] <= 1.012063443660736) {
                                                votes[0] += 1;
                                            }

                                            else {
                                                if (x[9] <= 4.475254774093628) {
                                                    votes[2] += 1;
                                                }

                                                else {
                                                    if (x[4] <= 0.8896705508232117) {
                                                        votes[0] += 1;
                                                    }

                                                    else {
                                                        if (x[3] <= 1.9507771730422974) {
                                                            if (x[21] <= 7.411491870880127) {
                                                                votes[1] += 1;
                                                            }

                                                            else {
                                                                votes[1] += 1;
                                                            }
                                                        }

                                                        else {
                                                            if (x[8] <= 14.299376010894775) {
                                                                votes[1] += 1;
                                                            }

                                                            else {
                                                                votes[1] += 1;
                                                            }
                                                        }
                                                    }
                                                }
                                            }
                                        }
                                    }
                                }

                                else {
                                    votes[2] += 1;
                                }
                            }

                            else {
                                if (x[2] <= 7.467856168746948) {
                                    if (x[9] <= 7.921191453933716) {
                                        if (x[5] <= 2.074857473373413) {
                                            if (x[2] <= -1.7306961119174957) {
                                                votes[2] += 1;
                                            }

                                            else {
                                                if (x[14] <= 100.13186264038086) {
                                                    votes[0] += 1;
                                                }

                                                else {
                                                    votes[1] += 1;
                                                }
                                            }
                                        }

                                        else {
                                            if (x[18] <= 1.7867748141288757) {
                                                if (x[0] <= 3.666757106781006) {
                                                    if (x[16] <= -0.3969888687133789) {
                                                        votes[0] += 1;
                                                    }

                                                    else {
                                                        if (x[10] <= 3.063664436340332) {
                                                            if (x[18] <= 0.4200665280222893) {
                                                                votes[1] += 1;
                                                            }

                                                            else {
                                                                votes[1] += 1;
                                                            }
                                                        }

                                                        else {
                                                            votes[1] += 1;
                                                        }
                                                    }
                                                }

                                                else {
                                                    if (x[21] <= 4.863149404525757) {
                                                        votes[0] += 1;
                                                    }

                                                    else {
                                                        votes[0] += 1;
                                                    }
                                                }
                                            }

                                            else {
                                                votes[0] += 1;
                                            }
                                        }
                                    }

                                    else {
                                        votes[0] += 1;
                                    }
                                }

                                else {
                                    votes[2] += 1;
                                }
                            }
                        }

                        // tree #8
                        if (x[10] <= 1.16675466299057) {
                            if (x[12] <= 1.6746339797973633) {
                                if (x[14] <= 96.07196426391602) {
                                    votes[0] += 1;
                                }

                                else {
                                    if (x[3] <= 0.5449492037296295) {
                                        if (x[21] <= 0.3823559284210205) {
                                            votes[2] += 1;
                                        }

                                        else {
                                            votes[2] += 1;
                                        }
                                    }

                                    else {
                                        votes[0] += 1;
                                    }
                                }
                            }

                            else {
                                if (x[14] <= 107.85237121582031) {
                                    if (x[5] <= 1.8255094289779663) {
                                        if (x[11] <= 0.9020403325557709) {
                                            if (x[10] <= 0.42738276720046997) {
                                                if (x[14] <= 98.23184585571289) {
                                                    if (x[2] <= 3.3495010137557983) {
                                                        votes[0] += 1;
                                                    }

                                                    else {
                                                        votes[2] += 1;
                                                    }
                                                }

                                                else {
                                                    votes[2] += 1;
                                                }
                                            }

                                            else {
                                                if (x[4] <= 0.5260898470878601) {
                                                    if (x[0] <= 0.05838999152183533) {
                                                        if (x[17] <= 0.03158930130302906) {
                                                            votes[2] += 1;
                                                        }

                                                        else {
                                                            votes[2] += 1;
                                                        }
                                                    }

                                                    else {
                                                        if (x[14] <= 98.39682388305664) {
                                                            votes[0] += 1;
                                                        }

                                                        else {
                                                            if (x[12] <= 2.4791345596313477) {
                                                                votes[0] += 1;
                                                            }

                                                            else {
                                                                votes[2] += 1;
                                                            }
                                                        }
                                                    }
                                                }

                                                else {
                                                    if (x[3] <= 0.9828057587146759) {
                                                        if (x[16] <= 0.1879095435142517) {
                                                            votes[2] += 1;
                                                        }

                                                        else {
                                                            votes[2] += 1;
                                                        }
                                                    }

                                                    else {
                                                        votes[0] += 1;
                                                    }
                                                }
                                            }
                                        }

                                        else {
                                            if (x[1] <= -4.896896123886108) {
                                                if (x[15] <= 2.6286749839782715) {
                                                    if (x[15] <= 2.6138070821762085) {
                                                        votes[0] += 1;
                                                    }

                                                    else {
                                                        votes[2] += 1;
                                                    }
                                                }

                                                else {
                                                    votes[0] += 1;
                                                }
                                            }

                                            else {
                                                votes[2] += 1;
                                            }
                                        }
                                    }

                                    else {
                                        if (x[1] <= -7.47591495513916) {
                                            if (x[12] <= 4.50519871711731) {
                                                votes[1] += 1;
                                            }

                                            else {
                                                votes[0] += 1;
                                            }
                                        }

                                        else {
                                            if (x[10] <= 0.8210760951042175) {
                                                votes[2] += 1;
                                            }

                                            else {
                                                if (x[17] <= 0.4585718661546707) {
                                                    votes[2] += 1;
                                                }

                                                else {
                                                    votes[2] += 1;
                                                }
                                            }
                                        }
                                    }
                                }

                                else {
                                    if (x[18] <= 1.2355526685714722) {
                                        votes[1] += 1;
                                    }

                                    else {
                                        if (x[2] <= -3.114313006401062) {
                                            votes[0] += 1;
                                        }

                                        else {
                                            votes[0] += 1;
                                        }
                                    }
                                }
                            }
                        }

                        else {
                            if (x[1] <= -3.835108995437622) {
                                if (x[8] <= 13.034111976623535) {
                                    if (x[1] <= -7.198935031890869) {
                                        votes[0] += 1;
                                    }

                                    else {
                                        if (x[15] <= 3.869759678840637) {
                                            votes[2] += 1;
                                        }

                                        else {
                                            votes[1] += 1;
                                        }
                                    }
                                }

                                else {
                                    if (x[4] <= 0.901355654001236) {
                                        if (x[6] <= 9.991173267364502) {
                                            votes[1] += 1;
                                        }

                                        else {
                                            votes[0] += 1;
                                        }
                                    }

                                    else {
                                        if (x[17] <= 0.16411247104406357) {
                                            if (x[9] <= 5.2767579555511475) {
                                                if (x[10] <= 2.127852439880371) {
                                                    votes[0] += 1;
                                                }

                                                else {
                                                    votes[2] += 1;
                                                }
                                            }

                                            else {
                                                if (x[15] <= 7.283807992935181) {
                                                    if (x[3] <= 1.4031622409820557) {
                                                        if (x[2] <= -2.724990963935852) {
                                                            votes[2] += 1;
                                                        }

                                                        else {
                                                            if (x[4] <= 1.2293254733085632) {
                                                                votes[1] += 1;
                                                            }

                                                            else {
                                                                votes[1] += 1;
                                                            }
                                                        }
                                                    }

                                                    else {
                                                        if (x[11] <= 2.537493109703064) {
                                                            votes[0] += 1;
                                                        }

                                                        else {
                                                            votes[1] += 1;
                                                        }
                                                    }
                                                }

                                                else {
                                                    if (x[15] <= 8.548669815063477) {
                                                        if (x[8] <= 15.798770904541016) {
                                                            votes[1] += 1;
                                                        }

                                                        else {
                                                            votes[0] += 1;
                                                        }
