#pragma once
#include <cstdarg>
namespace Eloquent {
    namespace ML {
        namespace Port {
            class FallDetectorShirt {
                public:
                    /**
                    * Predict class for features vector
                    */
                    int predict(float *x) {
                        uint8_t votes[3] = { 0 };
                        // tree #1
                        if (x[4] <= 0.8782894015312195) {
                            if (x[1] <= 2.4160839319229126) {
                                if (x[10] <= 0.39648911356925964) {
                                    votes[2] += 1;
                                }

                                else {
                                    if (x[10] <= 0.5698959231376648) {
                                        if (x[5] <= 0.44252878427505493) {
                                            votes[2] += 1;
                                        }

                                        else {
                                            if (x[14] <= 93.05238723754883) {
                                                if (x[10] <= 0.46699047088623047) {
                                                    votes[1] += 1;
                                                }

                                                else {
                                                    votes[1] += 1;
                                                }
                                            }

                                            else {
                                                votes[2] += 1;
                                            }
                                        }
                                    }

                                    else {
                                        votes[2] += 1;
                                    }
                                }
                            }

                            else {
                                if (x[15] <= 4.973124027252197) {
                                    if (x[16] <= -0.7634552419185638) {
                                        if (x[10] <= 0.46419191360473633) {
                                            votes[0] += 1;
                                        }

                                        else {
                                            votes[1] += 1;
                                        }
                                    }

                                    else {
                                        if (x[12] <= 2.1321831941604614) {
                                            if (x[0] <= -0.7688019871711731) {
                                                if (x[17] <= -0.016811183653771877) {
                                                    if (x[16] <= 0.5038585364818573) {
                                                        votes[0] += 1;
                                                    }

                                                    else {
                                                        votes[0] += 1;
                                                    }
                                                }

                                                else {
                                                    if (x[16] <= 0.28813549876213074) {
                                                        votes[2] += 1;
                                                    }

                                                    else {
                                                        votes[0] += 1;
                                                    }
                                                }
                                            }

                                            else {
                                                votes[0] += 1;
                                            }
                                        }

                                        else {
                                            if (x[1] <= 9.443196773529053) {
                                                if (x[4] <= 0.6741631925106049) {
                                                    votes[0] += 1;
                                                }

                                                else {
                                                    if (x[11] <= 1.0741994976997375) {
                                                        if (x[9] <= 7.715466499328613) {
                                                            votes[2] += 1;
                                                        }

                                                        else {
                                                            if (x[3] <= 0.9438639283180237) {
                                                                votes[0] += 1;
                                                            }

                                                            else {
                                                                votes[1] += 1;
                                                            }
                                                        }
                                                    }

                                                    else {
                                                        votes[0] += 1;
                                                    }
                                                }
                                            }

                                            else {
                                                votes[0] += 1;
                                            }
                                        }
                                    }
                                }

                                else {
                                    if (x[16] <= 0.21035020798444748) {
                                        votes[1] += 1;
                                    }

                                    else {
                                        votes[1] += 1;
                                    }
                                }
                            }
                        }

                        else {
                            if (x[2] <= 7.735562086105347) {
                                if (x[4] <= 3.6890032291412354) {
                                    if (x[0] <= 0.7962030172348022) {
                                        if (x[3] <= 0.8536007702350616) {
                                            if (x[8] <= 14.919152736663818) {
                                                if (x[1] <= 4.697576142847538) {
                                                    votes[2] += 1;
                                                }

                                                else {
                                                    votes[0] += 1;
                                                }
                                            }

                                            else {
                                                votes[1] += 1;
                                            }
                                        }

                                        else {
                                            if (x[10] <= 0.4637979120016098) {
                                                votes[1] += 1;
                                            }

                                            else {
                                                if (x[8] <= 15.227642059326172) {
                                                    if (x[9] <= 6.547091245651245) {
                                                        if (x[7] <= 1.1913542747497559) {
                                                            votes[0] += 1;
                                                        }

                                                        else {
                                                            if (x[16] <= -0.35731349885463715) {
                                                                votes[0] += 1;
                                                            }

                                                            else {
                                                                votes[2] += 1;
                                                            }
                                                        }
                                                    }

                                                    else {
                                                        if (x[13] <= 2.1888663172721863) {
                                                            if (x[3] <= 1.3133791089057922) {
                                                                votes[1] += 1;
                                                            }

                                                            else {
                                                                votes[1] += 1;
                                                            }
                                                        }

                                                        else {
                                                            votes[0] += 1;
                                                        }
                                                    }
                                                }

                                                else {
                                                    if (x[16] <= 0.005528838373720646) {
                                                        if (x[4] <= 2.6714375019073486) {
                                                            if (x[5] <= 2.7039589881896973) {
                                                                votes[1] += 1;
                                                            }

                                                            else {
                                                                votes[1] += 1;
                                                            }
                                                        }

                                                        else {
                                                            votes[2] += 1;
                                                        }
                                                    }

                                                    else {
                                                        votes[1] += 1;
                                                    }
                                                }
                                            }
                                        }
                                    }

                                    else {
                                        if (x[14] <= 99.73713302612305) {
                                            votes[0] += 1;
                                        }

                                        else {
                                            votes[1] += 1;
                                        }
                                    }
                                }

                                else {
                                    votes[2] += 1;
                                }
                            }

                            else {
                                if (x[1] <= 2.418900966644287) {
                                    votes[2] += 1;
                                }

                                else {
                                    votes[2] += 1;
                                }
                            }
                        }

                        // tree #2
                        if (x[15] <= 3.872077226638794) {
                            if (x[8] <= 9.987476825714111) {
                                if (x[8] <= 9.853159427642822) {
                                    votes[2] += 1;
                                }

                                else {
                                    if (x[13] <= 0.1450093537569046) {
                                        if (x[0] <= -0.7346719801425934) {
                                            votes[2] += 1;
                                        }

                                        else {
                                            votes[0] += 1;
                                        }
                                    }

                                    else {
                                        votes[2] += 1;
                                    }
                                }
                            }

                            else {
                                if (x[0] <= -0.8678339719772339) {
                                    if (x[0] <= -5.034435033798218) {
                                        if (x[12] <= 2.8960518836975098) {
                                            if (x[11] <= 0.463442862033844) {
                                                votes[1] += 1;
                                            }

                                            else {
                                                votes[1] += 1;
                                            }
                                        }

                                        else {
                                            votes[2] += 1;
                                        }
                                    }

                                    else {
                                        if (x[1] <= 5.720118045806885) {
                                            votes[2] += 1;
                                        }

                                        else {
                                            if (x[12] <= 0.7217274308204651) {
                                                votes[2] += 1;
                                            }

                                            else {
                                                if (x[4] <= 0.6476258039474487) {
                                                    votes[0] += 1;
                                                }

                                                else {
                                                    votes[1] += 1;
                                                }
                                            }
                                        }
                                    }
                                }

                                else {
                                    if (x[1] <= 0.9341529607772827) {
                                        votes[2] += 1;
                                    }

                                    else {
                                        if (x[3] <= 1.1767444014549255) {
                                            if (x[17] <= -0.6938076615333557) {
                                                if (x[1] <= 9.576522827148438) {
                                                    votes[0] += 1;
                                                }

                                                else {
                                                    votes[0] += 1;
                                                }
                                            }

                                            else {
                                                votes[0] += 1;
                                            }
                                        }

                                        else {
                                            if (x[11] <= 0.7647541165351868) {
                                                votes[0] += 1;
                                            }

                                            else {
                                                votes[1] += 1;
                                            }
                                        }
                                    }
                                }
                            }
                        }

                        else {
                            if (x[4] <= 0.8823980391025543) {
                                if (x[6] <= 10.154833793640137) {
                                    if (x[3] <= 0.5378852784633636) {
                                        votes[2] += 1;
                                    }

                                    else {
                                        if (x[17] <= 0.02733256109058857) {
                                            if (x[4] <= 0.7152737081050873) {
                                                if (x[10] <= 0.3913316875696182) {
                                                    votes[2] += 1;
                                                }

                                                else {
                                                    votes[1] += 1;
                                                }
                                            }

                                            else {
                                                if (x[16] <= 0.435212180018425) {
                                                    votes[0] += 1;
                                                }

                                                else {
                                                    if (x[1] <= 9.542558193206787) {
                                                        votes[2] += 1;
                                                    }

                                                    else {
                                                        votes[0] += 1;
                                                    }
                                                }
                                            }
                                        }

                                        else {
                                            votes[2] += 1;
                                        }
                                    }
                                }

                                else {
                                    votes[1] += 1;
                                }
                            }

                            else {
                                if (x[9] <= 5.431006908416748) {
                                    if (x[17] <= -0.23759612441062927) {
                                        if (x[4] <= 2.6754677295684814) {
                                            if (x[17] <= -0.633623331785202) {
                                                votes[0] += 1;
                                            }

                                            else {
                                                votes[0] += 1;
                                            }
                                        }

                                        else {
                                            votes[2] += 1;
                                        }
                                    }

                                    else {
                                        if (x[2] <= -9.182300090789795) {
                                            votes[2] += 1;
                                        }

                                        else {
                                            if (x[14] <= 128.5886344909668) {
                                                if (x[3] <= 1.522737979888916) {
                                                    votes[1] += 1;
                                                }

                                                else {
                                                    votes[1] += 1;
                                                }
                                            }

                                            else {
                                                votes[1] += 1;
                                            }
                                        }
                                    }
                                }

                                else {
                                    if (x[2] <= 8.91175365447998) {
                                        if (x[5] <= 0.9804241359233856) {
                                            if (x[3] <= 0.8479399383068085) {
                                                votes[0] += 1;
                                            }

                                            else {
                                                votes[0] += 1;
                                            }
                                        }

                                        else {
                                            if (x[18] <= 3.9961572885513306) {
                                                if (x[13] <= 0.5975814461708069) {
                                                    if (x[1] <= 8.921356201171875) {
                                                        votes[2] += 1;
                                                    }

                                                    else {
                                                        if (x[9] <= 8.055068969726562) {
                                                            votes[1] += 1;
                                                        }

                                                        else {
                                                            votes[0] += 1;
                                                        }
                                                    }
                                                }

                                                else {
                                                    if (x[3] <= 3.32929003238678) {
                                                        if (x[1] <= 9.482646942138672) {
                                                            if (x[18] <= -0.20324713736772537) {
                                                                votes[1] += 1;
                                                            }

                                                            else {
                                                                votes[1] += 1;
                                                            }
                                                        }

                                                        else {
                                                            votes[0] += 1;
                                                        }
                                                    }

                                                    else {
                                                        votes[0] += 1;
                                                    }
                                                }
                                            }

                                            else {
                                                votes[1] += 1;
                                            }
                                        }
                                    }

                                    else {
                                        votes[2] += 1;
                                    }
                                }
                            }
                        }

                        // tree #3
                        if (x[5] <= 0.9657770991325378) {
                            if (x[2] <= -3.997043013572693) {
                                if (x[4] <= 0.3883342444896698) {
                                    votes[2] += 1;
                                }

                                else {
                                    votes[1] += 1;
                                }
                            }

                            else {
                                if (x[1] <= 2.4160839319229126) {
                                    votes[2] += 1;
                                }

                                else {
                                    if (x[1] <= 9.554262161254883) {
                                        if (x[6] <= 9.678287982940674) {
                                            if (x[4] <= 0.291434109210968) {
                                                votes[0] += 1;
                                            }

                                            else {
                                                if (x[1] <= 5.913050174713135) {
                                                    votes[2] += 1;
                                                }

                                                else {
                                                    if (x[0] <= -0.6543279886245728) {
                                                        if (x[2] <= -1.6064119935035706) {
                                                            votes[0] += 1;
                                                        }

                                                        else {
                                                            votes[2] += 1;
                                                        }
                                                    }

                                                    else {
                                                        votes[0] += 1;
                                                    }
                                                }
                                            }
                                        }

                                        else {
                                            if (x[18] <= -0.5864071846008301) {
                                                votes[0] += 1;
                                            }

                                            else {
                                                if (x[0] <= -0.8662140071392059) {
                                                    if (x[10] <= 0.25815996527671814) {
                                                        votes[2] += 1;
                                                    }

                                                    else {
                                                        votes[0] += 1;
                                                    }
                                                }

                                                else {
                                                    votes[0] += 1;
                                                }
                                            }
                                        }
                                    }

                                    else {
                                        votes[0] += 1;
                                    }
                                }
                            }
                        }

                        else {
                            if (x[4] <= 0.7732007205486298) {
                                if (x[9] <= 8.136636734008789) {
                                    if (x[2] <= -1.2602789998054504) {
                                        if (x[21] <= 1.8276519179344177) {
                                            if (x[10] <= 1.1142959594726562) {
                                                votes[2] += 1;
                                            }

                                            else {
                                                votes[2] += 1;
                                            }
                                        }

                                        else {
                                            votes[0] += 1;
                                        }
                                    }

                                    else {
                                        votes[1] += 1;
                                    }
                                }

                                else {
                                    if (x[2] <= -4.555769920349121) {
                                        votes[1] += 1;
                                    }

                                    else {
                                        votes[0] += 1;
                                    }
                                }
                            }

                            else {
                                if (x[12] <= 23.57617950439453) {
                                    if (x[3] <= 3.5796098709106445) {
                                        if (x[14] <= 92.40119552612305) {
                                            if (x[18] <= 0.26923752576112747) {
                                                votes[0] += 1;
                                            }

                                            else {
                                                if (x[18] <= 0.6602173149585724) {
                                                    votes[2] += 1;
                                                }

                                                else {
                                                    votes[1] += 1;
                                                }
                                            }
                                        }

                                        else {
                                            if (x[17] <= -0.8821595907211304) {
                                                if (x[18] <= 0.48729162383824587) {
                                                    votes[1] += 1;
                                                }

                                                else {
                                                    votes[2] += 1;
                                                }
                                            }

                                            else {
                                                if (x[14] <= 108.0938606262207) {
                                                    if (x[9] <= 8.372505187988281) {
                                                        if (x[9] <= 6.1953513622283936) {
                                                            if (x[6] <= 9.738122940063477) {
                                                                votes[1] += 1;
                                                            }

                                                            else {
                                                                votes[2] += 1;
                                                            }
                                                        }

                                                        else {
                                                            if (x[5] <= 1.3002328872680664) {
                                                                votes[1] += 1;
                                                            }

                                                            else {
                                                                votes[1] += 1;
                                                            }
                                                        }
                                                    }

                                                    else {
                                                        if (x[7] <= 0.8027271628379822) {
                                                            votes[1] += 1;
                                                        }

                                                        else {
                                                            votes[0] += 1;
                                                        }
                                                    }
                                                }

                                                else {
                                                    if (x[3] <= 2.8670414686203003) {
                                                        if (x[9] <= 7.4066925048828125) {
                                                            votes[1] += 1;
                                                        }

                                                        else {
                                                            votes[1] += 1;
                                                        }
                                                    }

                                                    else {
                                                        if (x[7] <= 2.93574857711792) {
                                                            votes[2] += 1;
                                                        }

                                                        else {
                                                            votes[1] += 1;
                                                        }
                                                    }
                                                }
                                            }
                                        }
                                    }

                                    else {
                                        if (x[2] <= -1.9561530947685242) {
                                            votes[0] += 1;
                                        }

                                        else {
                                            votes[2] += 1;
                                        }
                                    }
                                }

                                else {
                                    votes[2] += 1;
                                }
                            }
                        }

                        // tree #4
                        if (x[4] <= 0.8546642065048218) {
                            if (x[0] <= -1.0695300102233887) {
                                if (x[4] <= 0.3550724983215332) {
                                    if (x[1] <= 5.713882803916931) {
                                        votes[2] += 1;
                                    }

                                    else {
                                        votes[0] += 1;
                                    }
                                }

                                else {
                                    if (x[2] <= 6.485692977905273) {
                                        if (x[18] <= 0.4244586378335953) {
                                            if (x[11] <= 0.5616914331912994) {
                                                votes[1] += 1;
                                            }

                                            else {
                                                if (x[0] <= -1.7464919686317444) {
                                                    votes[1] += 1;
                                                }

                                                else {
                                                    votes[0] += 1;
                                                }
                                            }
                                        }

                                        else {
                                            if (x[16] <= 0.3824080675840378) {
                                                if (x[1] <= 8.856626033782959) {
                                                    if (x[11] <= 0.9457016587257385) {
                                                        votes[1] += 1;
                                                    }

                                                    else {
                                                        votes[2] += 1;
                                                    }
                                                }

                                                else {
                                                    votes[0] += 1;
                                                }
                                            }

                                            else {
                                                votes[2] += 1;
                                            }
                                        }
                                    }

                                    else {
                                        votes[2] += 1;
                                    }
                                }
                            }

                            else {
                                if (x[6] <= 9.887268543243408) {
                                    if (x[2] <= -6.667423844337463) {
                                        votes[2] += 1;
                                    }

                                    else {
                                        if (x[3] <= 1.1851884722709656) {
                                            if (x[0] <= -0.8977330029010773) {
                                                if (x[3] <= 0.6160933971405029) {
                                                    votes[2] += 1;
                                                }

                                                else {
                                                    votes[0] += 1;
                                                }
                                            }

                                            else {
                                                if (x[16] <= 0.7596626877784729) {
                                                    votes[0] += 1;
                                                }

                                                else {
                                                    if (x[2] <= -1.275268018245697) {
                                                        votes[0] += 1;
                                                    }

                                                    else {
                                                        votes[0] += 1;
                                                    }
                                                }
                                            }
                                        }

                                        else {
                                            if (x[18] <= 0.11003278195858002) {
                                                votes[1] += 1;
                                            }

                                            else {
                                                votes[0] += 1;
                                            }
                                        }
                                    }
                                }

                                else {
                                    if (x[16] <= 0.07356136478483677) {
                                        votes[0] += 1;
                                    }

                                    else {
                                        if (x[6] <= 10.027896881103516) {
                                            if (x[6] <= 9.91105318069458) {
                                                if (x[10] <= 0.44641605019569397) {
                                                    votes[2] += 1;
                                                }

                                                else {
                                                    if (x[9] <= 8.421150922775269) {
                                                        votes[2] += 1;
                                                    }

                                                    else {
                                                        if (x[9] <= 9.311847686767578) {
                                                            votes[0] += 1;
                                                        }

                                                        else {
                                                            votes[2] += 1;
                                                        }
                                                    }
                                                }
                                            }

                                            else {
                                                votes[2] += 1;
                                            }
                                        }

                                        else {
                                            votes[2] += 1;
                                        }
                                    }
                                }
                            }
                        }

                        else {
                            if (x[0] <= 0.8092209994792938) {
                                if (x[2] <= -9.182300090789795) {
                                    votes[2] += 1;
                                }

                                else {
                                    if (x[3] <= 3.4244978427886963) {
                                        if (x[3] <= 0.6349525451660156) {
                                            if (x[12] <= 3.640437364578247) {
                                                votes[0] += 1;
                                            }

                                            else {
                                                if (x[9] <= 5.287997007369995) {
                                                    votes[0] += 1;
                                                }

                                                else {
                                                    votes[1] += 1;
                                                }
                                            }
                                        }

                                        else {
                                            if (x[0] <= -7.695636987686157) {
                                                votes[2] += 1;
                                            }

                                            else {
                                                if (x[13] <= 0.3589702546596527) {
                                                    votes[0] += 1;
                                                }

                                                else {
                                                    if (x[14] <= 89.54800415039062) {
                                                        votes[1] += 1;
                                                    }

                                                    else {
                                                        if (x[17] <= -0.6869890093803406) {
                                                            if (x[0] <= -2.016718029975891) {
                                                                votes[1] += 1;
                                                            }

                                                            else {
                                                                votes[0] += 1;
                                                            }
                                                        }

                                                        else {
                                                            if (x[8] <= 13.131415843963623) {
                                                                votes[1] += 1;
                                                            }

                                                            else {
                                                                votes[1] += 1;
                                                            }
                                                        }
                                                    }
                                                }
                                            }
                                        }
                                    }

                                    else {
                                        if (x[18] <= 1.3250162601470947) {
                                            votes[0] += 1;
                                        }

                                        else {
                                            votes[2] += 1;
                                        }
                                    }
                                }
                            }

                            else {
                                if (x[7] <= 1.4659315943717957) {
                                    votes[0] += 1;
                                }

                                else {
                                    votes[1] += 1;
                                }
                            }
                        }

                        // tree #5
                        if (x[1] <= 9.358918190002441) {
                            if (x[3] <= 0.4834595173597336) {
                                if (x[3] <= 0.30543477833271027) {
                                    if (x[0] <= -1.1045799851417542) {
                                        if (x[14] <= 94.55992126464844) {
                                            votes[2] += 1;
                                        }

                                        else {
                                            if (x[11] <= 0.3595203757286072) {
                                                votes[2] += 1;
                                            }

                                            else {
                                                votes[2] += 1;
                                            }
                                        }
                                    }

                                    else {
                                        if (x[7] <= 0.21336745470762253) {
                                            if (x[1] <= 2.4628320932388306) {
                                                votes[0] += 1;
                                            }

                                            else {
                                                votes[0] += 1;
                                            }
                                        }

                                        else {
                                            if (x[17] <= 0.18762986361980438) {
                                                votes[2] += 1;
                                            }

                                            else {
                                                votes[2] += 1;
                                            }
                                        }
                                    }
                                }

                                else {
                                    if (x[12] <= 1.6907127499580383) {
                                        if (x[2] <= -3.098062038421631) {
                                            votes[1] += 1;
                                        }

                                        else {
                                            if (x[8] <= 10.340184211730957) {
                                                votes[2] += 1;
                                            }

                                            else {
                                                votes[0] += 1;
                                            }
                                        }
                                    }

                                    else {
                                        if (x[1] <= 5.2279088497161865) {
                                            votes[2] += 1;
                                        }

                                        else {
                                            votes[0] += 1;
                                        }
                                    }
                                }
                            }

                            else {
                                if (x[1] <= 0.9460850059986115) {
                                    if (x[11] <= 1.8126115798950195) {
                                        votes[2] += 1;
                                    }

                                    else {
                                        if (x[3] <= 3.366461157798767) {
                                            if (x[18] <= 0.9694446623325348) {
                                                votes[1] += 1;
                                            }

                                            else {
                                                if (x[18] <= 2.4276983737945557) {
                                                    if (x[16] <= -0.2975507378578186) {
                                                        votes[2] += 1;
                                                    }

                                                    else {
                                                        votes[2] += 1;
                                                    }
                                                }

                                                else {
                                                    if (x[14] <= 108.67404556274414) {
                                                        votes[1] += 1;
                                                    }

                                                    else {
                                                        votes[1] += 1;
                                                    }
                                                }
                                            }
                                        }

                                        else {
                                            votes[2] += 1;
                                        }
                                    }
                                }

                                else {
                                    if (x[11] <= 0.4402201324701309) {
                                        votes[0] += 1;
                                    }

                                    else {
                                        if (x[12] <= 19.390549659729004) {
                                            if (x[4] <= 0.9155401289463043) {
                                                if (x[0] <= -1.1970469951629639) {
                                                    if (x[21] <= 0.9750300347805023) {
                                                        if (x[4] <= 0.41286586225032806) {
                                                            votes[1] += 1;
                                                        }

                                                        else {
                                                            votes[1] += 1;
                                                        }
                                                    }

                                                    else {
                                                        if (x[6] <= 9.589394092559814) {
                                                            votes[2] += 1;
                                                        }

                                                        else {
                                                            if (x[1] <= 8.856626033782959) {
                                                                votes[1] += 1;
                                                            }

                                                            else {
                                                                votes[0] += 1;
                                                            }
                                                        }
                                                    }
                                                }

                                                else {
                                                    if (x[3] <= 0.6320622265338898) {
                                                        votes[2] += 1;
                                                    }

                                                    else {
                                                        votes[0] += 1;
                                                    }
                                                }
                                            }

                                            else {
                                                if (x[2] <= 7.355857849121094) {
                                                    if (x[18] <= -0.880865752696991) {
                                                        votes[0] += 1;
                                                    }

                                                    else {
                                                        if (x[14] <= 88.74009323120117) {
                                                            votes[2] += 1;
                                                        }

                                                        else {
                                                            if (x[14] <= 92.56889343261719) {
                                                                votes[1] += 1;
                                                            }

                                                            else {
                                                                votes[1] += 1;
                                                            }
                                                        }
                                                    }
                                                }

                                                else {
                                                    if (x[16] <= 0.4441469982266426) {
                                                        votes[2] += 1;
                                                    }

                                                    else {
                                                        votes[0] += 1;
                                                    }
                                                }
                                            }
                                        }

                                        else {
                                            votes[2] += 1;
                                        }
                                    }
                                }
                            }
                        }

                        else {
                            if (x[8] <= 13.131415843963623) {
                                if (x[6] <= 9.570638656616211) {
                                    votes[1] += 1;
                                }

                                else {
                                    if (x[4] <= 0.13742496818304062) {
                                        if (x[17] <= -0.01233635377138853) {
                                            votes[0] += 1;
                                        }

                                        else {
                                            votes[2] += 1;
                                        }
                                    }

                                    else {
                                        votes[0] += 1;
                                    }
                                }
                            }

                            else {
                                if (x[14] <= 102.97553634643555) {
                                    if (x[4] <= 0.987772136926651) {
                                        votes[1] += 1;
                                    }

                                    else {
                                        votes[0] += 1;
                                    }
                                }

                                else {
                                    votes[1] += 1;
                                }
                            }
                        }

                        // tree #6
                        if (x[0] <= -0.23646199703216553) {
                            if (x[5] <= 0.9464327096939087) {
                                if (x[6] <= 9.720174789428711) {
                                    if (x[4] <= 0.32223157584667206) {
                                        if (x[0] <= -1.1610029637813568) {
                                            if (x[3] <= 0.3013125956058502) {
                                                votes[2] += 1;
                                            }

                                            else {
                                                if (x[1] <= 5.808888792991638) {
                                                    votes[2] += 1;
                                                }

                                                else {
                                                    votes[0] += 1;
                                                }
                                            }
                                        }

                                        else {
                                            if (x[6] <= 9.668012142181396) {
                                                votes[2] += 1;
                                            }

                                            else {
                                                votes[0] += 1;
                                            }
                                        }
                                    }

                                    else {
                                        if (x[0] <= -5.8229429721832275) {
                                            votes[1] += 1;
                                        }

                                        else {
                                            if (x[15] <= 3.220059633255005) {
                                                if (x[11] <= 0.7755130529403687) {
                                                    if (x[11] <= 0.6604421436786652) {
                                                        votes[2] += 1;
                                                    }

                                                    else {
                                                        votes[2] += 1;
                                                    }
                                                }

                                                else {
                                                    votes[0] += 1;
                                                }
                                            }

                                            else {
                                                if (x[13] <= 0.437898725271225) {
                                                    votes[0] += 1;
                                                }

                                                else {
                                                    if (x[5] <= 0.842915803194046) {
                                                        votes[2] += 1;
                                                    }

                                                    else {
                                                        votes[2] += 1;
                                                    }
                                                }
                                            }
                                        }
                                    }
                                }

                                else {
                                    if (x[1] <= 5.6826629638671875) {
                                        votes[2] += 1;
                                    }

                                    else {
                                        if (x[3] <= 0.23130810260772705) {
                                            votes[2] += 1;
                                        }

                                        else {
                                            votes[0] += 1;
                                        }
                                    }
                                }
                            }

                            else {
                                if (x[9] <= 7.804027318954468) {
                                    if (x[15] <= 12.659734725952148) {
                                        if (x[11] <= 2.212949514389038) {
                                            if (x[14] <= 91.70471572875977) {
                                                if (x[16] <= 0.43485160171985626) {
                                                    if (x[21] <= 2.0931501388549805) {
                                                        votes[1] += 1;
                                                    }

                                                    else {
                                                        if (x[16] <= -0.32750973105430603) {
                                                            votes[0] += 1;
                                                        }

                                                        else {
                                                            votes[2] += 1;
                                                        }
                                                    }
                                                }

                                                else {
                                                    votes[2] += 1;
                                                }
                                            }

                                            else {
                                                if (x[1] <= 9.319376945495605) {
                                                    if (x[12] <= 2.5080069303512573) {
                                                        votes[0] += 1;
                                                    }

                                                    else {
                                                        if (x[4] <= 2.534937262535095) {
                                                            if (x[3] <= 1.3716374039649963) {
                                                                votes[1] += 1;
                                                            }

                                                            else {
                                                                votes[1] += 1;
                                                            }
                                                        }

                                                        else {
                                                            if (x[15] <= 9.210201740264893) {
                                                                votes[0] += 1;
                                                            }

                                                            else {
                                                                votes[1] += 1;
                                                            }
                                                        }
                                                    }
                                                }

                                                else {
                                                    votes[0] += 1;
                                                }
                                            }
                                        }

                                        else {
                                            if (x[14] <= 99.8237419128418) {
                                                votes[1] += 1;
                                            }

                                            else {
                                                votes[0] += 1;
                                            }
                                        }
                                    }

                                    else {
                                        if (x[17] <= -0.19291449338197708) {
                                            votes[2] += 1;
                                        }

                                        else {
                                            if (x[11] <= 2.0695340633392334) {
                                                votes[1] += 1;
                                            }

                                            else {
                                                if (x[3] <= 2.883108973503113) {
                                                    votes[1] += 1;
                                                }

                                                else {
                                                    votes[1] += 1;
                                                }
                                            }
                                        }
                                    }
                                }

                                else {
                                    if (x[21] <= 2.7011537551879883) {
                                        if (x[17] <= 0.5314130187034607) {
                                            if (x[7] <= 0.35556964576244354) {
                                                votes[0] += 1;
                                            }

                                            else {
                                                if (x[10] <= 0.6062068343162537) {
                                                    votes[0] += 1;
                                                }

                                                else {
                                                    if (x[16] <= -0.6741138398647308) {
                                                        votes[1] += 1;
                                                    }

                                                    else {
                                                        if (x[11] <= 0.8902703821659088) {
                                                            votes[1] += 1;
                                                        }

                                                        else {
                                                            votes[0] += 1;
                                                        }
                                                    }
                                                }
                                            }
                                        }

                                        else {
                                            votes[2] += 1;
                                        }
                                    }

                                    else {
                                        if (x[0] <= -2.8482099771499634) {
                                            votes[1] += 1;
                                        }

                                        else {
                                            votes[1] += 1;
                                        }
                                    }
                                }
                            }
                        }

                        else {
                            if (x[15] <= 5.0501790046691895) {
                                if (x[7] <= 1.15422785282135) {
                                    if (x[6] <= 9.888516426086426) {
                                        if (x[12] <= 0.5109327137470245) {
                                            if (x[7] <= 0.2340639978647232) {
                                                votes[0] += 1;
                                            }

                                            else {
                                                votes[0] += 1;
                                            }
                                        }

                                        else {
                                            votes[0] += 1;
                                        }
                                    }

                                    else {
                                        if (x[4] <= 0.41001351177692413) {
                                            if (x[16] <= 0.36435307562351227) {
                                                votes[2] += 1;
                                            }

                                            else {
                                                votes[2] += 1;
                                            }
                                        }

                                        else {
                                            votes[0] += 1;
                                        }
                                    }
                                }

                                else {
                                    votes[2] += 1;
                                }
                            }

                            else {
                                if (x[16] <= 0.22496376931667328) {
                                    if (x[2] <= -5.702364981174469) {
                                        votes[2] += 1;
                                    }

                                    else {
                                        votes[0] += 1;
                                    }
                                }

                                else {
                                    if (x[3] <= 0.7377685904502869) {
                                        if (x[6] <= 9.96052598953247) {
                                            votes[0] += 1;
                                        }

                                        else {
                                            votes[0] += 1;
                                        }
                                    }

                                    else {
                                        if (x[16] <= 0.5084996223449707) {
                                            votes[1] += 1;
                                        }

                                        else {
                                            votes[1] += 1;
                                        }
                                    }
                                }
                            }
                        }

                        // tree #7
                        if (x[4] <= 0.9170021712779999) {
                            if (x[6] <= 9.711887836456299) {
                                if (x[21] <= 0.22612954676151276) {
                                    if (x[1] <= 2.8343160152435303) {
                                        if (x[8] <= 9.999427318572998) {
                                            votes[2] += 1;
                                        }

                                        else {
                                            if (x[7] <= 0.16760475933551788) {
                                                votes[2] += 1;
                                            }

                                            else {
                                                votes[2] += 1;
                                            }
                                        }
                                    }

                                    else {
                                        if (x[0] <= -0.736860990524292) {
                                            votes[0] += 1;
                                        }

                                        else {
                                            votes[0] += 1;
                                        }
                                    }
                                }

                                else {
                                    if (x[1] <= 1.341040015220642) {
                                        votes[2] += 1;
                                    }

                                    else {
                                        if (x[0] <= -2.672050952911377) {
                                            if (x[2] <= -1.9880229085683823) {
                                                votes[1] += 1;
                                            }

                                            else {
                                                if (x[7] <= 0.9473152756690979) {
                                                    votes[1] += 1;
                                                }

                                                else {
                                                    votes[2] += 1;
                                                }
                                            }
                                        }

                                        else {
                                            if (x[9] <= 7.254669904708862) {
                                                votes[2] += 1;
                                            }

                                            else {
                                                votes[0] += 1;
                                            }
                                        }
                                    }
                                }
                            }

                            else {
                                if (x[2] <= -7.930855751037598) {
                                    votes[2] += 1;
                                }

                                else {
                                    if (x[0] <= -0.5619499981403351) {
                                        if (x[5] <= 1.4067447781562805) {
                                            if (x[21] <= 1.0983207821846008) {
                                                if (x[11] <= 0.7642523646354675) {
                                                    if (x[9] <= 8.99495553970337) {
                                                        if (x[0] <= -1.2549789547920227) {
                                                            votes[2] += 1;
                                                        }

                                                        else {
                                                            votes[0] += 1;
                                                        }
                                                    }

                                                    else {
                                                        if (x[3] <= 0.23130810260772705) {
                                                            votes[2] += 1;
                                                        }

                                                        else {
                                                            votes[0] += 1;
                                                        }
                                                    }
                                                }

                                                else {
                                                    votes[1] += 1;
                                                }
                                            }

                                            else {
                                                if (x[13] <= 0.8258099257946014) {
                                                    votes[0] += 1;
                                                }

                                                else {
                                                    votes[0] += 1;
                                                }
                                            }
                                        }

                                        else {
                                            if (x[2] <= -2.9971429109573364) {
                                                votes[1] += 1;
                                            }

                                            else {
                                                votes[1] += 1;
                                            }
                                        }
                                    }

                                    else {
                                        votes[0] += 1;
                                    }
                                }
                            }
                        }

                        else {
                            if (x[6] <= 10.659586906433105) {
                                if (x[17] <= -0.6819921433925629) {
                                    if (x[18] <= -0.10989641025662422) {
                                        votes[0] += 1;
                                    }

                                    else {
                                        if (x[4] <= 2.129477858543396) {
                                            if (x[7] <= 1.2175896167755127) {
                                                if (x[1] <= 4.7794740200042725) {
                                                    votes[1] += 1;
                                                }

                                                else {
                                                    votes[1] += 1;
                                                }
                                            }

                                            else {
                                                if (x[17] <= -0.7111997306346893) {
                                                    votes[0] += 1;
                                                }

                                                else {
                                                    votes[1] += 1;
                                                }
                                            }
                                        }

                                        else {
                                            votes[2] += 1;
                                        }
                                    }
                                }

                                else {
                                    if (x[5] <= 0.9590013921260834) {
                                        if (x[12] <= 3.5681662559509277) {
                                            votes[0] += 1;
                                        }

                                        else {
                                            votes[2] += 1;
                                        }
                                    }

                                    else {
                                        if (x[13] <= 4.080199956893921) {
                                            if (x[11] <= 0.679436445236206) {
                                                votes[1] += 1;
                                            }

                                            else {
                                                if (x[18] <= -0.4587569832801819) {
                                                    if (x[12] <= 3.9538902044296265) {
                                                        votes[1] += 1;
                                                    }

                                                    else {
                                                        votes[0] += 1;
                                                    }
                                                }

                                                else {
                                                    if (x[9] <= 6.1953513622283936) {
                                                        if (x[2] <= -9.024157047271729) {
                                                            votes[2] += 1;
                                                        }

                                                        else {
                                                            if (x[2] <= 4.472860047593713) {
                                                                votes[1] += 1;
                                                            }

                                                            else {
                                                                votes[2] += 1;
                                                            }
                                                        }
                                                    }

                                                    else {
                                                        if (x[12] <= 2.8141367435455322) {
                                                            votes[2] += 1;
                                                        }

                                                        else {
                                                            if (x[12] <= 10.440197467803955) {
                                                                votes[1] += 1;
                                                            }

                                                            else {
                                                                votes[1] += 1;
                                                            }
                                                        }
                                                    }
                                                }
                                            }
                                        }

                                        else {
                                            votes[2] += 1;
                                        }
                                    }
                                }
                            }

                            else {
                                votes[2] += 1;
                            }
                        }

                        // tree #8
                        if (x[4] <= 0.8547457754611969) {
                            if (x[10] <= 0.14947332441806793) {
                                if (x[14] <= 94.50653839111328) {
                                    if (x[9] <= 9.46390962600708) {
                                        votes[2] += 1;
                                    }

                                    else {
                                        if (x[2] <= 0.42695188522338867) {
                                            votes[2] += 1;
                                        }

                                        else {
                                            votes[0] += 1;
                                        }
                                    }
                                }

                                else {
                                    if (x[21] <= 0.09115917980670929) {
                                        votes[0] += 1;
                                    }

                                    else {
                                        votes[0] += 1;
                                    }
                                }
                            }

                            else {
                                if (x[6] <= 9.678911209106445) {
                                    if (x[2] <= 4.827023148536682) {
                                        if (x[6] <= 9.61768627166748) {
                                            if (x[11] <= 0.6114964783191681) {
                                                if (x[1] <= 6.162766218185425) {
                                                    if (x[8] <= 10.519927978515625) {
                                                        votes[1] += 1;
                                                    }

                                                    else {
                                                        votes[1] += 1;
                                                    }
                                                }

                                                else {
                                                    votes[0] += 1;
                                                }
                                            }

                                            else {
                                                votes[0] += 1;
                                            }
                                        }

                                        else {
                                            if (x[1] <= 8.99212121963501) {
                                                votes[1] += 1;
                                            }

                                            else {
                                                if (x[17] <= -0.2886600196361542) {
                                                    votes[2] += 1;
                                                }

                                                else {
                                                    votes[0] += 1;
                                                }
                                            }
                                        }
                                    }

                                    else {
                                        if (x[18] <= -0.41175949573516846) {
                                            votes[2] += 1;
                                        }

                                        else {
                                            votes[2] += 1;
                                        }
                                    }
                                }

                                else {
                                    if (x[1] <= 2.368597984313965) {
                                        votes[2] += 1;
                                    }

                                    else {
                                        if (x[6] <= 9.96954345703125) {
                                            if (x[21] <= 1.79792058467865) {
                                                if (x[9] <= 7.8341920375823975) {
                                                    if (x[9] <= 7.691198348999023) {
                                                        votes[0] += 1;
                                                    }

                                                    else {
                                                        votes[2] += 1;
                                                    }
                                                }

                                                else {
                                                    if (x[2] <= -1.5886369943618774) {
                                                        if (x[5] <= 0.23418274521827698) {
                                                            votes[2] += 1;
                                                        }

                                                        else {
                                                            if (x[7] <= 0.8278359174728394) {
                                                                votes[0] += 1;
                                                            }

                                                            else {
                                                                votes[2] += 1;
                                                            }
                                                        }
                                                    }

                                                    else {
                                                        votes[0] += 1;
                                                    }
                                                }
                                            }

                                            else {
                                                if (x[6] <= 9.723892211914062) {
                                                    votes[2] += 1;
                                                }

                                                else {
                                                    votes[0] += 1;
                                                }
                                            }
                                        }

                                        else {
                                            votes[1] += 1;
                                        }
                                    }
                                }
                            }
                        }

                        else {
                            if (x[1] <= 9.448819637298584) {
                                if (x[14] <= 133.7332000732422) {
                                    if (x[13] <= 4.080199956893921) {
                                        if (x[17] <= -0.7390555143356323) {
                                            if (x[9] <= 6.877835750579834) {
                                                if (x[14] <= 102.57546615600586) {
                                                    if (x[6] <= 9.48164701461792) {
                                                        votes[2] += 1;
                                                    }

                                                    else {
                                                        votes[0] += 1;
                                                    }
                                                }

                                                else {
                                                    votes[2] += 1;
                                                }
                                            }

                                            else {
                                                votes[1] += 1;
                                            }
                                        }

                                        else {
                                            if (x[15] <= 9.459486961364746) {
                                                if (x[2] <= 7.57522988319397) {
                                                    if (x[9] <= 6.0616233348846436) {
                                                        if (x[9] <= 5.2188966274261475) {
                                                            votes[0] += 1;
                                                        }

                                                        else {
                                                            votes[2] += 1;
                                                        }
                                                    }

                                                    else {
                                                        if (x[17] <= 0.5739937126636505) {
                                                            if (x[21] <= 11.130234241485596) {
                                                                votes[1] += 1;
                                                            }

                                                            else {
                                                                votes[0] += 1;
                                                            }
                                                        }

                                                        else {
                                                            votes[0] += 1;
                                                        }
                                                    }
                                                }

                                                else {
                                                    if (x[3] <= 0.8820578455924988) {
                                                        votes[2] += 1;
                                                    }

                                                    else {
                                                        votes[2] += 1;
                                                    }
                                                }
                                            }

                                            else {
                                                if (x[4] <= 1.673328697681427) {
                                                    if (x[16] <= -0.4096774011850357) {
                                                        votes[1] += 1;
                                                    }

                                                    else {
                                                        votes[2] += 1;
                                                    }
                                                }

                                                else {
                                                    if (x[2] <= 0.521979995071888) {
                                                        votes[1] += 1;
                                                    }

                                                    else {
                                                        votes[1] += 1;
                                                    }
                                                }
                                            }
                                        }
                                    }

                                    else {
                                        votes[2] += 1;
                                    }
                                }

                                else {
                                    votes[2] += 1;
                                }
                            }

                            else {
                                if (x[6] <= 10.018319606781006) {
                                    votes[0] += 1;
                                }

                                else {
                                    votes[1] += 1;
                                }
                            }
                        }

                        // tree #9
                        if (x[1] <= 9.358918190002441) {
                            if (x[5] <= 0.44252878427505493) {
                                if (x[2] <= 8.470090866088867) {
                                    if (x[5] <= 0.3717172294855118) {
                                        if (x[5] <= 0.3526625335216522) {
                                            votes[2] += 1;
                                        }

                                        else {
                                            votes[2] += 1;
                                        }
                                    }

                                    else {
                                        if (x[8] <= 10.152195453643799) {
                                            votes[2] += 1;
                                        }

                                        else {
                                            if (x[0] <= 2.4365310668945312) {
                                                votes[1] += 1;
                                            }

                                            else {
                                                votes[0] += 1;
                                            }
                                        }
                                    }
                                }

                                else {
                                    if (x[11] <= 0.28457608819007874) {
                                        votes[0] += 1;
                                    }

                                    else {
                                        if (x[3] <= 0.4251514673233032) {
                                            if (x[6] <= 9.709370136260986) {
                                                votes[2] += 1;
                                            }

                                            else {
                                                if (x[1] <= 2.2684099674224854) {
                                                    votes[2] += 1;
                                                }

                                                else {
                                                    votes[0] += 1;
                                                }
                                            }
                                        }

                                        else {
                                            votes[0] += 1;
                                        }
                                    }
                                }
                            }

                            else {
                                if (x[9] <= 7.4169652462005615) {
                                    if (x[15] <= 12.659734725952148) {
                                        if (x[20] <= 0.009999999776482582) {
                                            if (x[2] <= -9.363418102264404) {
                                                votes[2] += 1;
                                            }

                                            else {
                                                if (x[3] <= 3.402545928955078) {
                                                    if (x[2] <= 5.899729013442993) {
                                                        if (x[15] <= 6.384176731109619) {
                                                            if (x[12] <= 5.895308256149292) {
                                                                votes[1] += 1;
                                                            }

                                                            else {
                                                                votes[0] += 1;
                                                            }
                                                        }

                                                        else {
                                                            if (x[17] <= -0.6869890093803406) {
                                                                votes[2] += 1;
                                                            }

                                                            else {
                                                                votes[1] += 1;
                                                            }
                                                        }
                                                    }

                                                    else {
                                                        if (x[3] <= 1.4569730162620544) {
                                                            votes[2] += 1;
                                                        }

                                                        else {
                                                            votes[0] += 1;
                                                        }
                                                    }
                                                }

                                                else {
